float Layer2_Weights_CPU[7800] = {0.054904,-0.073097,0.000577,0.298383,0.135726,0.141145,0.020820,-0.060553,-0.052835,0.101045,0.286689,0.159566,-0.137266,-0.009824,0.114293,0.039420,0.267682,0.051241,-0.030587,0.150705,0.109198,-0.069052,0.229884,0.074918,0.077109,0.034437,0.160033,-0.014030,0.077428,0.049796,0.094940,0.039536,0.004658,0.004756,0.160867,0.159169,-0.198275,-0.046415,-0.028465,0.028958,0.390287,0.129380,-0.259349,0.095763,0.059841,-0.079552,0.249603,0.179442,0.009071,-0.095757,0.106496,-0.111512,0.174519,0.185599,0.098536,-0.074914,0.076036,0.003953,0.092935,0.147911,0.006072,0.072003,-0.061488,-0.221537,0.060376,0.104331,-0.129039,-0.008129,0.005784,-0.224172,0.087380,0.107230,-0.036688,0.006888,0.133540,-0.187585,-0.044134,0.126501,0.148472,-0.076657,0.135186,-0.114631,-0.142029,0.178677,0.228307,-0.024156,0.088316,0.162353,-0.029980,0.183038,0.309560,0.159844,0.000344,-0.279894,-0.164288,0.208446,0.057453,0.026305,0.035423,-0.328285,-0.189764,0.060261,0.066705,0.049236,-0.098978,-0.234728,-0.183643,0.074877,0.254828,-0.039136,-0.046795,-0.303739,-0.257848,0.005043,0.231156,-0.020339,0.042868,0.035599,-0.065833,0.053469,0.131741,0.044718,-0.106559,-0.222864,-0.248764,0.058499,0.042980,0.022259,-0.128681,-0.165712,-0.265154,-0.008744,0.061196,-0.017919,-0.125887,-0.044399,-0.199486,0.024567,0.092260,-0.024134,-0.087205,-0.158837,-0.085471,-0.089242,0.042779,-0.076152,0.074735,0.139795,-0.132639,-0.003791,-0.098377,-0.012981,-0.038147,-0.049655,0.007341,0.034515,-0.185873,0.025380,-0.077813,0.079797,-0.101445,-0.021176,0.056149,-0.007685,-0.000716,-0.018615,0.031842,-0.062293,-0.046533,0.037930,0.032780,-0.147222,0.058033,-0.022753,-0.006684,0.001729,-0.023703,-0.104530,-0.085978,0.036044,-0.028747,-0.079322,0.074975,0.034411,-0.108827,-0.084276,-0.005362,0.027905,-0.069624,0.071411,-0.033094,0.036501,0.069424,0.079312,-0.062813,0.078275,-0.059533,-0.061731,-0.079734,-0.042921,-0.023060,0.076449,-0.009335,-0.003550,-0.094859,-0.052089,-0.114815,0.044419,0.014367,-0.074264,-0.092132,-0.090874,-0.065542,0.066993,0.062349,-0.028686,-0.219665,0.046165,-0.048597,-0.018140,-0.077290,-0.083972,0.150400,0.141702,-0.040210,-0.037873,-0.073771,-0.109857,-0.021547,0.036714,-0.021956,0.054005,-0.166447,-0.081810,-0.180221,0.014743,-0.081284,-0.052866,-0.140479,-0.056701,-0.276969,-0.007437,0.036570,0.022030,-0.101416,-0.037597,-0.190100,-0.078758,0.115862,0.038655,-0.020319,0.077867,0.045597,0.068014,0.074213,0.119881,0.080470,0.070760,-0.020921,0.076033,0.057206,0.143819,-0.006018,0.051480,-0.124312,0.022247,-0.052698,0.146884,-0.111201,-0.087533,-0.116352,0.029778,-0.072088,0.063488,-0.189451,-0.063471,-0.017679,-0.017187,0.114584,-0.077497,0.157772,0.023519,0.062112,-0.059121,0.186068,-0.095198,0.198053,0.080877,0.092967,-0.016065,0.081277,-0.129131,0.045837,0.034294,0.028664,-0.010514,0.072018,0.044581,-0.010197,-0.012366,0.008215,0.066536,0.038311,0.010046,-0.067976,0.073632,-0.021040,-0.043716,0.020797,-0.023778,0.012816,-0.004833,-0.177313,0.034557,-0.107859,0.066768,-0.164849,0.120433,0.191057,0.045394,-0.182253,0.084495,-0.148838,0.054597,0.326230,0.017933,-0.152533,-0.049772,-0.054859,-0.056228,0.085904,0.071368,0.012576,-0.066322,-0.016819,-0.167908,0.148988,0.024511,0.029205,-0.039754,0.019444,-0.107458,0.042495,-0.055645,-0.125230,0.022775,-0.063510,0.019837,0.014418,0.056019,-0.154943,0.130441,-0.075138,0.003180,0.197884,0.065825,-0.139939,0.071186,0.054983,-0.099332,-0.025642,0.089956,0.009824,-0.018606,-0.031332,-0.280645,-0.095204,-0.018586,-0.025361,0.084392,0.139128,-0.205081,-0.100414,0.043768,-0.027717,0.018744,0.033107,-0.056840,-0.007731,0.035253,0.001209,0.021632,-0.001504,-0.178963,-0.183553,-0.055379,-0.002180,0.026630,-0.183694,-0.080235,-0.336141,-0.026476,-0.006080,-0.059687,-0.186464,-0.091268,-0.329468,-0.066536,0.027318,0.029184,-0.081470,-0.159011,-0.129653,0.024959,0.036551,-0.045517,0.159881,0.011148,-0.039063,0.163044,0.014806,0.210994,0.249993,-0.186281,-0.168529,0.092477,0.098841,0.019410,-0.055868,-0.110782,-0.484649,0.006748,0.032725,-0.109723,-0.263598,0.012007,-0.381776,-0.100583,0.011829,-0.079607,-0.295427,-0.024834,-0.068888,0.030878,0.091144,0.185356,0.157556,0.074804,-0.104429,0.124345,0.312595,0.340619,0.103851,0.079622,-0.066708,0.076046,0.078781,0.094028,0.087596,0.046349,-0.128986,0.040202,0.089191,0.058421,-0.016045,-0.008213,-0.179313,-0.029201,-0.051782,-0.007028,-0.056745,0.003961,0.006747,-0.047855,-0.035949,0.047479,0.015319,-0.019152,-2.468401,-0.027233,0.011579,0.134633,0.565677,0.081408,-0.504482,-0.073620,0.113997,0.197033,0.343231,0.081930,-0.523741,-0.066840,0.234969,0.127480,0.288323,-0.035069,-0.346516,-0.077369,0.069914,0.004249,0.180225,-0.054132,-0.049956,-0.031900,0.045520,-0.197047,0.016697,-0.142965,0.117473,-0.053384,0.254645,-0.126548,0.145313,0.176460,-0.568636,0.095599,-0.072550,-0.238335,0.036924,0.128340,-0.347059,0.042564,-0.102509,0.029620,0.164627,0.153226,-0.204479,-0.010808,-0.100532,-0.012564,0.024143,0.043176,-0.124030,-0.081100,0.127058,0.058830,-0.228561,-0.188548,0.128591,-0.051119,0.211368,-0.716457,-0.289466,0.157943,-0.065238,-0.044079,0.042691,-0.330672,-0.225091,0.295852,-0.117733,-0.128213,-0.101469,-0.294111,-0.054533,0.246896,0.070391,0.053039,-0.352042,-0.243109,-0.037745,-0.058975,0.352456,0.150603,0.006201,-0.224647,0.063928,-0.287966,0.484317,0.442515,-0.365061,-0.161896,-0.225058,-0.187640,0.440409,0.319008,-0.348060,0.108778,0.014300,-0.194426,0.084997,0.372254,-0.312742,0.592096,0.211518,-0.094156,-0.364282,0.175946,-0.454495,0.475036,0.459878,-0.277719,-0.084378,0.219908,-0.746278,-0.112442,0.888165,-0.200069,0.472802,-0.018228,0.135729,-0.165408,-0.589139,0.206044,0.581149,-0.315704,0.180846,0.374081,-0.780093,0.272247,0.705461,-0.216544,0.109662,0.723212,-0.658727,0.453953,0.285828,-0.372387,0.678805,0.757009,-0.292477,0.123694,0.124450,-0.078769,0.750306,0.858460,0.008374,-0.142120,0.354018,0.030416,-0.007491,0.006517,0.002425,0.034451,1.344493,0.023613,-0.167889,0.027919,0.209304,-0.019540,0.047225,-0.034882,0.181537,-0.555465,0.124818,-0.136142,-0.228026,-0.180482,0.148554,-0.298312,0.210169,-0.152239,-0.486766,-0.002142,0.030007,-0.356777,0.188953,-0.164347,-0.264202,-0.035920,-0.022490,-0.554389,0.269395,-0.139835,-0.063103,0.097657,-0.288138,0.412685,-0.113783,0.233597,0.318669,0.010761,0.242345,-0.270314,0.128653,-0.104430,0.123179,-0.082577,0.400779,-0.395852,0.092486,-0.170064,-0.492789,-0.238360,0.133546,-0.035967,-0.133435,-0.069781,-0.389214,-0.080214,-0.149625,-0.175303,0.174687,-0.177738,-0.159951,-0.142283,-0.002796,0.389330,-0.329157,0.244152,0.730234,0.055705,-0.320444,-0.089894,-0.409532,0.059438,0.434550,0.188739,0.195607,-0.541030,0.007321,-0.095765,-0.072581,0.035130,-0.009240,-0.315173,-0.252120,-0.059180,-0.325423,0.001633,-0.189611,-0.174928,0.026170,-0.151626,-0.262634,-0.017592,0.158403,0.687793,-0.152906,0.086966,0.356827,0.108965,0.028492,0.464672,-0.074577,0.072151,0.367707,0.147286,0.163455,0.011345,0.035193,0.142772,0.045562,0.059934,0.003069,0.028411,-0.130311,-0.014444,-0.082445,0.091815,-0.070352,-0.024269,0.089619,-0.016558,-0.175048,-0.114374,-0.194687,0.299908,-0.164424,0.049702,0.173592,0.097862,0.132200,0.618727,-0.000435,-0.237076,0.385329,0.104844,-0.038605,0.359867,0.034274,-0.066298,0.015481,0.093290,0.013244,0.415080,0.034103,0.048380,-0.168149,0.089960,-0.109136,0.176815,0.132885,0.168497,-0.139401,0.003783,0.002794,0.009316,0.018685,0.034970,0.176293,0.082999,0.084032,0.137284,0.138371,0.222084,0.081078,0.027545,-0.027085,-0.016208,0.120520,0.142074,0.014694,0.104148,-0.028909,0.037016,0.100323,0.020895,-0.024796,0.069989,-0.009779,-0.042630,0.151153,-0.115143,-0.090252,-0.068350,0.068432,0.069892,0.019535,-0.122890,-0.222936,-0.142107,-0.030403,0.284467,0.226908,0.314688,-0.031984,-0.013315,-0.001436,0.422933,0.226133,0.159342,0.075403,0.043353,-0.061497,0.356502,0.007867,0.100184,0.096888,0.205553,-0.105129,0.274388,0.081686,-0.185220,0.065081,0.008805,0.073349,0.155799,0.053823,-0.103889,-0.109440,-0.088335,0.002037,0.272885,0.279975,0.283510,-0.272434,-0.020801,0.071735,0.361655,0.397145,0.217749,0.049641,-0.036877,-0.042949,0.287080,0.131768,0.098222,0.197655,0.167975,-0.072362,0.174060,0.309771,-0.155508,0.242580,0.085700,0.040068,0.144452,0.258758,-0.106359,0.085448,-0.074532,-0.015112,0.086147,0.312318,0.120411,-0.271431,-0.026918,-0.015226,0.056737,0.255334,0.024719,-0.026103,-0.001873,-0.007538,0.066233,0.261903,0.121447,0.057185,0.020059,0.101721,-0.097217,0.430361,-0.023483,0.234849,0.128800,-0.073582,-0.071825,0.321698,-0.072244,0.326701,0.103326,0.033838,-0.250002,0.338924,0.025369,-0.066003,0.080406,-0.062668,-0.293314,0.316128,-0.033751,0.000725,0.066040,-0.092990,-0.255692,0.213574,-0.003049,0.070050,0.065999,-0.054592,-0.259027,0.299198,-0.046507,0.202275,0.112939,-0.111124,-0.025043,0.076837,0.101836,0.299899,-0.006224,0.018950,-0.032144,0.025723,-0.045285,0.372256,-0.203722,-0.025554,0.018545,-0.234889,0.221333,-0.085915,-0.072609,-0.019149,-0.023393,-0.077420,0.193645,0.296662,-0.055261,0.144897,0.062964,-0.059785,0.106549,0.365311,0.029655,0.221052,0.410664,-0.208139,-0.059589,0.222078,0.007251,0.302471,0.362412,-0.266791,-0.088423,0.069727,-0.045022,-0.055652,-0.154537,-0.213620,-0.121256,-0.074243,0.020985,-0.034054,0.090015,-0.187932,-0.171263,-0.516012,-0.179494,-0.103002,0.331529,-0.121520,-0.210651,-0.839710,-0.149136,-0.155485,0.291506,-0.159819,-0.253808,-0.583389,-0.070636,0.038358,0.355109,-0.169397,-0.209270,-0.158317,-0.012894,0.002042,0.110173,0.369093,-0.066043,0.257209,0.066539,-0.161402,0.172257,0.391166,0.043053,0.162313,0.168996,0.023199,0.036806,0.363602,-0.054859,-0.187330,0.150466,0.127481,-0.140662,0.325716,-0.065905,-0.171510,0.024856,0.085570,0.102141,0.119263,-0.034285,0.008881,-0.178319,0.099696,0.274626,0.050191,0.215290,-0.249880,-0.132837,0.155928,0.147760,0.075343,0.261666,0.072464,-0.071387,0.290367,0.269233,0.021962,0.038412,0.048056,-0.087626,0.134962,0.208157,-0.103737,0.054689,0.093807,-0.066637,0.030682,0.134635,-0.096282,0.050532,-0.095035,0.074718,-0.007479,-0.080958,-0.163540,-0.119630,-0.021983,0.002800,-0.001074,-0.110944,-0.491316,-0.095951,0.124917,-0.118043,-0.004210,-0.098424,-0.395921,-0.067298,0.009727,-0.202433,0.012779,-0.061849,-0.207135,0.025941,-0.038338,-0.194857,0.172573,0.083517,-0.108537,-0.013652,-0.106338,0.047732,0.029003,-0.022005,0.006270,-0.015310,-0.175612,-0.016632,-0.044126,0.101653,-0.179111,-0.223372,0.154440,0.003423,-0.104031,0.072331,-0.217962,-0.236985,0.168907,0.002602,-0.147724,0.010461,-0.147594,-0.208722,0.034394,0.035524,-0.154061,-0.091462,-0.128805,-0.290749,0.156321,0.115874,-0.096055,-0.119516,0.035149,-0.152981,0.203833,-0.076727,-0.209862,0.182433,0.016899,-0.207944,0.016975,0.033861,-0.288675,0.159281,-0.020825,-0.166632,0.097098,0.101494,-0.214923,0.124941,0.033961,-0.202388,-0.074636,0.150322,-0.199429,0.107171,0.113989,-0.310826,-0.026339,0.144204,-0.144913,0.039171,0.087758,-0.193698,0.087657,0.045201,-0.047861,0.301081,0.106560,-0.145283,-0.194752,0.163263,0.006782,0.279615,0.123881,-0.084352,-0.336663,0.062235,0.026906,0.254383,0.074833,-0.109311,-0.380142,0.088130,0.022164,0.175867,-0.006614,-0.075335,-0.279446,0.000917,0.000825,0.040435,-0.081394,-0.018898,-0.066304,0.073681,0.026528,0.202490,-0.036100,-0.012238,-0.162287,0.101116,0.086069,0.179736,0.006405,0.125455,-0.283054,0.015957,0.169592,0.007914,0.022001,0.085843,-0.144988,0.008557,0.160288,-0.061181,0.018362,0.134906,-0.092713,0.040335,0.044133,0.014102,-0.041949,0.107308,0.084820,-0.023328,0.035296,0.163108,-0.084992,0.075719,-0.142028,0.038446,0.073780,0.095681,0.004735,0.152026,-0.075968,0.086121,0.018168,0.058265,0.106186,0.139468,0.027488,-0.003754,-0.029102,0.009382,0.091457,0.108192,0.033480,0.011817,-0.007363,0.132469,0.126212,0.210812,0.101091,-0.007311,0.010768,-0.020540,-0.028460,-0.049994,-0.980509,0.129797,-0.085557,-0.207382,-0.376258,-0.039419,0.633186,0.037376,-0.205698,-0.159570,-0.433789,0.013059,0.412626,-0.001471,-0.088495,-0.152642,-0.307055,-0.088133,-0.112007,0.043565,-0.073699,0.381602,0.034787,-0.242385,-0.227300,-0.004488,0.024641,0.327786,0.101341,-0.156812,-0.081424,0.077885,-0.001945,-0.019351,-0.458752,-0.035604,0.738620,0.067378,-0.133685,0.156108,-0.286661,-0.184395,0.331720,0.067888,-0.087954,0.084635,-0.019282,-0.122392,-0.056766,0.062747,0.053634,0.353665,0.423001,-0.286444,-0.198881,0.030861,0.014356,0.198669,0.330534,-0.150275,-0.182734,-0.043198,-0.120456,0.075946,-0.327895,-0.243658,0.296716,-0.023539,-0.018088,0.269316,0.105163,-0.099047,0.029275,0.065968,0.095941,0.226803,0.314848,0.001596,-0.013592,0.155327,0.100897,0.159906,0.666534,-0.252128,-0.398034,0.042774,0.114862,0.215143,0.284932,-0.065452,-0.153152,-0.179865,-0.078139,0.008034,-0.187878,-0.004249,-0.015440,-0.000096,0.118582,0.285761,0.357370,-0.080609,-0.007469,0.061133,0.093600,0.279626,0.671699,-0.017540,-0.115516,0.117817,-0.014774,0.189756,0.568759,0.023282,-0.310178,0.058414,0.202860,0.227685,0.226924,0.189362,-0.120925,-0.143978,0.021406,-0.018651,0.214939,-0.156299,-0.028023,-0.083145,0.047762,0.198977,0.424972,-0.170013,-0.012673,-0.080059,0.107326,0.263854,0.269167,0.064787,-0.085684,0.085935,0.058389,-0.147240,0.220905,0.084700,-0.000925,0.165029,0.082509,0.019669,0.026906,0.028693,0.169508,0.048074,-0.018685,0.045035,-0.018731,-0.012780,0.246057,-0.092681,0.008160,0.061042,0.004554,0.012672,-0.054562,-0.003682,0.018318,0.125128,0.041128,-0.121494,-0.065539,-0.073134,0.036108,0.025900,0.066801,-0.018115,-0.095932,-0.025685,0.063088,0.014627,-0.006518,-0.095354,-0.072785,0.000941,0.017412,-0.025794,0.035358,-0.123033,0.042147,-0.090146,0.040158,-0.024543,-0.081468,-0.033672,-0.055382,-0.068666,0.054399,-0.007827,-0.086104,-0.051396,0.019143,-0.052092,0.037996,0.056788,-0.091492,-0.020089,-0.007215,-0.023707,0.067997,0.050798,-0.027741,-0.118146,0.007825,-0.052352,0.002876,-0.014520,-0.018778,-0.081985,-0.079820,-0.011146,0.061570,0.048329,0.036460,0.039320,0.030341,0.038825,0.074747,0.084830,-0.005930,-0.067080,-0.030015,-0.041810,-0.026701,0.077752,-0.076125,-0.068749,0.018158,0.044835,0.135534,0.038864,-0.007894,-0.041247,0.027253,0.005372,0.065422,-0.008374,0.015333,0.004324,0.037329,-0.012871,0.003994,0.062272,-0.085044,0.071894,-0.034940,0.022262,-0.005313,0.004730,-0.149787,0.023255,-0.044313,0.036168,0.046809,0.107755,-0.107202,0.029391,0.004598,0.026004,0.080038,-0.032365,-0.072046,-0.014370,-0.006917,-0.058545,0.031595,-0.086304,-0.018134,0.057710,-0.080678,-0.003347,-0.029299,-0.096626,0.061536,-0.017572,0.028599,0.045231,-0.011782,-0.141602,-0.045960,-0.010507,0.087419,-0.072514,0.053692,-0.061090,0.142432,0.020786,0.069416,0.040907,0.050047,0.024155,0.069902,0.085360,-0.000132,-0.025288,-0.003927,-0.036595,0.040274,0.085284,-0.004413,-0.030960,-0.045590,0.045657,0.035858,0.005446,-0.766090,0.024543,0.110110,-0.199896,0.226133,-0.310450,-0.111666,-0.030008,0.018910,0.157647,0.156646,-0.244848,0.072785,0.058753,0.012686,0.143635,0.197238,-0.119077,-0.039220,0.065703,0.237787,0.339466,0.056253,-0.098856,-0.290424,-0.069289,0.189979,0.098064,-0.115647,-0.011689,-0.208157,-0.019369,0.045446,0.001812,0.413025,-0.301665,-0.223588,0.054566,0.105237,0.228071,0.245687,-0.128758,-0.026732,-0.057198,0.005270,0.153844,0.194149,-0.026651,-0.255311,-0.006876,0.113662,0.143894,0.098107,0.022285,-0.573484,-0.101692,0.096703,0.164836,0.076530,0.070135,-0.370578,0.132552,0.200691,0.048382,0.505761,-0.374165,-0.107660,-0.108643,0.049569,0.135219,0.022217,-0.012309,-0.220081,-0.193548,0.098012,0.165509,0.052485,0.146616,-0.318807,-0.084308,-0.008726,0.208902,0.262679,-0.046317,-0.523267,-0.198345,0.070808,0.032571,0.229868,0.017022,-0.465917,0.102566,0.094441,0.003203,0.609379,-0.185990,0.125773,-0.077270,-0.057417,-0.023705,0.105700,-0.074616,-0.035533,-0.059667,0.160244,0.245357,-0.158984,0.009695,-0.106786,0.028624,0.011953,0.089496,0.085194,-0.037679,-0.293622,-0.015302,-0.215270,-0.271583,0.358779,-0.157267,-0.240573,0.010121,0.073848,-0.122416,0.035179,-0.005010,0.077776,-0.078013,-0.067236,-0.018671,0.019118,-0.205994,0.139384,-0.121730,0.019676,0.257096,0.036162,-0.064629,-0.007598,-0.106079,0.141862,0.136650,0.231981,-0.081507,-0.080527,0.066773,-0.069534,-0.290509,0.430412,-0.121752,-0.004421,0.042376,0.040378,-0.011577,0.049921,0.003145,-0.315678,0.032521,-0.007372,-0.036716,-0.096814,-0.097560,0.019039,0.043560,0.019352,0.025356,-0.103525,-0.074551,-0.035800,0.066463,0.000818,0.090288,0.110289,-0.118400,-0.082929,0.075745,-0.011802,0.217053,0.087489,0.003560,-0.039539,-0.067465,-0.124031,0.110302,0.012663,-0.033199,-0.011930,0.029461,-0.076003,-0.053876,-0.151908,-0.167592,0.037851,0.036122,-0.012029,0.207609,-0.089069,-0.174582,0.010328,0.057101,0.019391,-0.058319,-0.028720,-0.052374,-0.131665,0.100389,-0.005654,0.003795,-0.048328,-0.042426,-0.083749,-0.009278,-0.018490,-0.027645,-0.036630,-0.020325,-0.068366,0.030060,-0.066398,-0.093166,-0.048089,-0.095350,-0.048476,0.062120,0.015806,-0.024540,-0.090222,0.053752,-0.054838,0.130531,0.049932,0.024637,-0.012973,0.040871,-0.082987,0.132178,0.043477,-0.027962,-0.114237,0.053024,-0.101191,0.019715,-0.030071,-0.075421,-0.019134,-0.056224,0.014901,0.026538,0.093356,-0.171134,0.032112,-0.081691,-0.021478,0.012997,0.026605,-0.067048,-0.027778,0.072404,-0.050429,0.095571,0.056344,-0.010716,-0.013617,0.037772,-0.069392,0.069436,0.013637,0.100699,-0.011145,0.107500,-0.075045,0.056002,-0.140351,0.052023,0.118030,0.100078,0.073914,-0.101411,0.011698,-0.153008,-0.115561,-0.125357,0.016235,0.020058,-0.107869,-0.098442,-0.165306,0.060940,0.028805,-0.000716,-0.068276,-0.194892,-0.049839,0.039788,0.026038,0.035313,-0.088863,0.002196,0.017256,0.034244,-0.024816,0.133284,-0.064109,-0.040645,0.069842,0.068207,0.036829,0.006774,-0.027334,-0.025735,-0.033294,-0.037542,0.399960,-0.018821,-0.164832,-0.201790,0.304744,0.228810,-0.268611,-0.030814,-0.131122,-0.177790,0.338193,0.228937,-0.292973,0.027373,0.006721,-0.017104,0.179235,0.206339,-0.154411,-0.019415,0.059537,-0.151682,0.126879,0.260877,-0.136401,0.055908,0.270178,-0.008316,0.120918,0.080892,0.024231,0.137279,0.016163,0.060596,0.225896,0.360668,-0.215164,0.017203,0.070693,-0.018529,0.146968,0.393954,-0.152618,0.068835,0.161948,0.088513,-0.053960,0.275893,-0.072609,0.009293,0.061035,0.017160,-0.155407,0.154139,0.120202,0.036400,0.123111,0.098784,-0.046190,0.126480,0.122574,0.070153,0.025232,0.046710,0.079173,0.264026,-0.022161,0.054672,0.008658,-0.037994,-0.055046,0.150396,0.129294,-0.013805,0.061285,0.029543,-0.062626,0.111297,0.235121,-0.001734,-0.067930,-0.053672,-0.047480,0.020611,0.408805,0.069347,0.118584,0.074446,-0.095943,0.022521,0.343065,0.085488,-0.183370,0.020069,-0.137447,0.241517,-0.013277,-0.016089,-0.061916,0.027766,-0.130577,-0.021150,0.123618,0.093399,-0.045568,0.011606,-0.013860,-0.134151,0.135475,0.058748,-0.054860,-0.041866,0.018433,-0.265931,0.266319,0.097838,0.130059,0.120528,-0.121866,-0.135573,0.154032,-0.012381,-0.121151,0.015702,0.023553,0.159420,0.042418,-0.083381,-0.166577,0.113798,0.015920,-0.098140,-0.007441,-0.028994,0.047322,0.162277,0.070182,-0.168274,0.076480,-0.013861,-0.006937,0.001877,0.150584,-0.184022,0.174591,-0.054334,0.083638,0.121327,0.063712,-0.045647,0.052839,0.019448,-0.004375,-0.027734,0.022668,-0.007076,-0.514692,0.061491,-0.069370,-0.188543,0.070097,-0.021233,0.012350,-0.033866,0.024508,-0.282287,0.046033,0.003607,0.013913,0.001620,0.122734,-0.265828,-0.108729,0.139441,0.139122,-0.027647,0.014329,-0.114409,-0.220332,0.173879,0.103308,0.056868,-0.029363,0.168229,-0.054221,0.031408,0.088851,-0.027214,-0.023895,-0.100026,-0.001565,0.115235,0.063398,-0.043798,0.104092,-0.264906,-0.022331,0.027885,0.069159,-0.086134,0.071177,-0.356148,-0.124556,0.124574,0.057939,-0.017555,0.052589,-0.228655,-0.301113,0.224124,0.190311,-0.067737,0.081555,0.048257,-0.100730,0.109368,0.107812,-0.013770,-0.150177,-0.080311,-0.037322,0.056341,0.037191,0.102219,-0.012858,-0.174013,0.155859,-0.087998,-0.096885,0.031469,-0.039937,-0.126647,0.051224,-0.085869,-0.114635,0.078535,-0.166509,-0.055648,-0.108413,0.093514,-0.101429,0.063594,0.072154,0.082663,-0.044757,-0.058137,-0.079706,0.046214,-0.051354,0.050163,0.063616,0.043711,-0.081701,0.036553,0.014178,0.039940,0.051571,0.105134,0.039303,-0.045149,0.092179,0.143420,-0.153523,0.190671,0.126900,-0.014696,0.030501,0.078753,-0.187777,0.075845,-0.029788,0.021596,0.100511,0.192501,-0.021158,-0.130950,0.030370,-0.045424,0.075655,0.258571,0.089150,0.160675,-0.173425,-0.091575,0.126928,0.209738,0.042480,0.139996,-0.186286,-0.071616,0.139179,0.089940,0.181036,0.050356,-0.139666,-0.068308,-0.022943,-0.033238,0.270984,-0.038953,-0.080961,0.003183,-0.016437,0.026511,0.209622,-0.055505,0.082809,0.040869,-0.002297,-0.042560,0.021618,0.046524,-0.080096,-0.031191,-0.116456,-0.190015,0.121313,0.001657,-0.047547,0.000550,0.025051,-0.030756,0.086915,-0.009041,-0.029127,0.057771,0.040520,0.064330,0.003220,0.004697,0.068820,0.051401,0.036700,-0.106738,-0.044961,-0.055907,0.152170,-0.012342,0.205429,0.051769,0.113691,-0.106071,0.126873,-0.032931,-0.050138,-0.113939,0.252583,0.125266,-0.180313,0.026285,-0.040402,-0.004808,0.199718,0.200910,-0.250386,-0.057897,-0.034516,-0.023019,-0.049824,0.118259,-0.263783,-0.104184,-0.019519,-0.044718,-0.064683,0.083024,-0.139568,0.018777,0.072962,0.022683,0.048384,-0.076098,-0.000890,0.035760,-0.063854,-0.128763,-0.032294,0.069560,-0.019029,0.033927,-0.007712,0.027352,-0.045752,0.034005,-0.022089,0.006538,-0.034115,0.040086,0.008014,0.125364,-0.072352,-0.049960,-0.032149,0.051035,-0.091003,0.018359,0.051430,0.001394,0.163787,0.082705,0.100489,-0.001682,0.052838,-0.049765,-0.089633,0.003246,-0.114799,0.018033,0.075865,0.018779,-0.020927,0.057771,-0.103808,0.116092,0.103195,-0.005626,-0.051558,0.062917,-0.031366,-0.073671,0.088028,-0.003285,-0.058911,0.146814,-0.025867,-0.034129,0.041100,-0.056168,0.094640,0.047103,0.129585,-0.056359,-0.021794,-0.102294,0.032036,-0.075354,0.090608,-0.072393,0.051149,-0.135586,-0.105272,-0.014918,-0.048058,-0.027645,0.133872,-0.063866,-0.020535,-0.034005,0.005451,-0.165570,0.063259,-0.025240,-0.026715,0.227929,0.027086,-0.178228,0.001201,0.026505,0.049845,0.083561,0.019438,-0.087239,0.015548,-0.040439,0.024602,0.008864,0.027844,-0.024142,0.068939,0.039435,0.019611,0.107962,-0.070943,-0.025153,0.022071,0.010763,0.054977,-0.074007,-0.176670,-0.105800,0.071955,0.050820,0.081997,-0.354809,-0.098107,-0.078890,0.119989,-0.009363,0.005376,-0.419110,-0.035642,0.143006,0.214424,0.062040,-0.006316,-0.262937,0.175305,0.107806,0.130106,0.054461,-0.095164,0.127711,-0.151611,-0.201390,0.129052,0.021650,-0.087897,-0.096234,-0.302198,-0.140406,0.065426,0.025348,0.083373,-0.355107,-0.227341,-0.073614,0.109797,0.001771,-0.034095,-0.424389,-0.108252,0.141626,0.231361,0.057721,-0.065397,-0.435512,0.050784,0.138644,0.116065,-0.057865,-0.076158,-0.078661,-0.241245,-0.154052,0.048034,-0.022723,-0.130358,-0.197030,-0.332589,-0.153188,-0.086513,0.076793,0.095106,-0.281238,-0.348008,-0.039795,0.023659,-0.052422,-0.060939,-0.252971,-0.184550,0.156452,0.068014,-0.141568,-0.126720,-0.223507,0.054501,0.055821,-0.075749,0.053597,-0.088820,-0.159430,-0.177852,-0.030733,-0.090533,0.051150,-0.009588,-0.302784,-0.301642,-0.117005,-0.054630,-0.026817,0.150244,-0.315184,-0.350110,0.116963,0.004562,-0.172643,-0.016972,-0.330243,-0.380863,0.011395,-0.080749,-0.083264,-0.005086,-0.122029,0.004868,0.076522,-0.218845,-0.033700,-0.093041,-0.071800,-0.323253,0.174814,-0.082755,-0.022524,0.085263,-0.285152,-0.412786,0.088314,-0.109040,-0.112140,0.062785,-0.257680,-0.321974,-0.011071,-0.002700,-0.198862,-0.081535,-0.173538,-0.243262,0.024432,-0.109792,-0.096222,0.009253,0.070662,0.062564,0.098492,-0.027171,0.028823,-0.043371,0.015035,0.037521,-0.042608,0.411512,0.137421,0.039881,-0.571345,-0.052054,-0.272432,0.194793,-0.015932,-0.050126,-0.541969,-0.151205,-0.247356,0.082775,-0.115318,0.070178,-0.370841,-0.240311,-0.058746,-0.074836,0.013387,-0.130780,-0.206076,-0.249997,-0.140342,0.020370,0.130603,-0.108959,-0.372515,-0.075073,-0.136493,0.128469,0.103290,-0.027387,-0.488301,0.022565,0.045478,0.355322,-0.030579,-0.225084,-0.442823,-0.136740,-0.144226,0.030478,0.013691,-0.257162,-0.252035,-0.132790,-0.112314,-0.185328,-0.072263,-0.010079,0.030581,-0.077188,0.011907,-0.142512,-0.222066,0.135032,0.245181,-0.170007,0.007395,0.341945,-0.087143,-0.004574,0.114898,0.296861,0.335985,-0.293943,0.025136,0.193866,0.235839,-0.020078,0.325193,-0.357021,-0.023364,0.195400,0.272379,-0.190346,0.011742,-0.444908,-0.084003,0.221132,0.703007,-0.095062,-0.014046,-0.640436,-0.128586,0.410181,0.588213,-0.019462,-0.211261,-0.427813,-0.142068,0.170923,0.411602,-0.071990,0.209178,-0.292859,-0.216194,-0.019771,0.742554,-0.254328,0.269871,-0.558907,-0.141597,-0.017425,0.968605,-0.125823,0.228108,-0.412677,-0.040742,-0.028964,0.744594,0.124827,-0.237269,-0.366793,0.048548,0.100770,0.235968,0.262858,-0.339861,-0.489682,-0.006841,0.077485,0.372649,-0.184352,0.078140,0.025450,-0.134334,0.145453,0.594671,0.147189,0.179502,-0.264006,-0.030762,-0.056613,0.796744,0.204347,-0.112154,-0.037695,-0.038132,0.156576,0.472436,0.210606,-0.290811,-0.077441,0.047651,-0.022728,-0.000558,0.258509,-0.094426,-0.071913,0.037194,-0.015258,-0.016671,0.037835,-0.048413,-0.451513,0.108991,-0.137477,0.258299,0.224705,-0.111289,0.060236,0.220334,-0.050001,0.040311,0.090777,-0.146793,0.118951,0.166846,-0.050154,-0.168715,0.031056,-0.112850,-0.004879,0.103219,0.029148,-0.244870,-0.030074,-0.147244,-0.109625,0.053710,0.104521,-0.207210,-0.089564,-0.117250,-0.090907,0.132567,-0.043004,0.304120,0.114646,-0.071343,0.024356,0.174066,0.042744,-0.043780,-0.037682,-0.110469,0.068059,-0.001579,-0.042049,-0.050388,-0.182311,-0.047083,-0.350917,-0.067618,0.005334,-0.101922,-0.226667,0.113516,-0.455457,-0.087802,-0.020377,-0.128529,-0.334657,0.031483,-0.272597,0.030633,-0.017294,0.087054,0.040101,-0.046724,-0.009757,0.036028,0.037342,-0.188165,-0.144420,0.066293,-0.180204,-0.052006,-0.082180,0.023091,-0.303115,0.034714,-0.256302,-0.035557,-0.051520,0.190862,-0.319955,-0.045082,-0.399280,-0.061294,0.006514,0.097510,-0.450477,-0.068942,-0.323457,0.109930,-0.048312,-0.106863,-0.130637,0.167445,0.065602,0.078994,0.095608,0.027852,-0.346968,0.126702,-0.097380,0.010079,0.079284,0.078362,-0.332073,0.035657,-0.087563,-0.052356,0.030587,0.301975,-0.347802,-0.131565,-0.141094,0.022740,0.127366,0.219635,-0.369413,-0.213652,-0.092855,0.070618,-0.096759,0.067209,-0.365621,0.251307,0.023055,0.018744,0.134146,-0.054212,-0.265655,0.073464,-0.128482,-0.176399,0.025428,-0.066077,-0.157331,-0.179057,-0.129643,-0.061449,-0.021272,-0.162863,-0.206589,-0.305047,-0.110859,0.060856,-0.069597,0.046552,-0.183627,-0.213207,0.100389,-0.015358,-0.030465,0.000450,0.013173,0.021841,0.536839,-0.004288,0.030375,0.186897,0.015259,0.072820,-0.069078,-0.010137,0.080295,0.222581,-0.167470,0.151308,0.021509,-0.096015,-0.055950,0.145627,-0.186996,0.165074,-0.061871,-0.082021,0.088866,0.204387,-0.186389,0.149317,-0.143077,-0.115214,0.075987,0.196626,-0.166801,0.177385,0.004935,-0.059447,0.066799,-0.033607,-0.155485,0.006564,0.065193,-0.063773,0.185958,-0.024128,-0.222465,-0.024956,0.222412,-0.009639,-0.024897,-0.199435,-0.151682,-0.169072,0.213342,0.047951,0.014518,-0.092171,-0.100462,-0.064050,0.078706,-0.021010,0.155608,0.050430,-0.071482,0.042576,0.084548,-0.050408,-0.063618,0.114001,-0.099431,-0.076124,0.020731,0.021893,-0.125327,0.014959,-0.011217,-0.189762,0.079166,-0.026807,-0.121676,-0.164594,0.019050,-0.223426,0.235710,0.159571,-0.150310,-0.238701,0.095524,-0.170588,0.166633,0.010041,0.019323,0.102937,0.010313,-0.110452,0.073680,-0.011741,-0.223706,0.138407,0.043164,-0.102420,0.113473,0.051128,-0.033143,0.061955,0.155796,-0.076123,-0.196213,0.023704,0.072773,-0.163724,0.182979,-0.069016,0.034340,0.010662,-0.059833,-0.106762,0.263888,-0.075160,-0.003986,-0.034094,0.012418,0.072982,-0.023537,-0.152713,-0.134589,0.049312,-0.118376,0.333478,-0.051898,0.031137,0.017788,0.124041,0.027496,0.263651,0.160490,-0.027332,-0.116967,0.013470,-0.012483,0.023853,0.149130,0.061084,-0.146785,-0.008245,-0.114942,0.004852,0.138649,0.108540,-0.166839,-0.060184,0.028594,0.142312,0.073401,-0.057299,-0.216419,-0.013750,0.017675,0.040704,0.007753,-0.015926,-0.230472,-0.003664,0.098095,0.128502,-0.026970,0.026340,0.124064,-0.033747,0.080918,0.205966,-0.114624,0.039316,0.116834,0.045394,0.022932,0.202881,-0.123692,-0.045514,0.179042,0.097205,-0.088203,0.141003,0.063020,-0.103243,0.247899,0.132322,-0.080586,0.003413,0.003667,-0.079670,0.277022,-0.015217,0.001985,0.026645,0.124513,-0.010668,-0.064798,-0.077236,-0.046631,0.043993,0.142996,0.106690,-0.013498,-0.093615,-0.073685,0.057601,0.221811,-0.026344,0.061719,0.038090,0.005315,0.138165,0.400162,-0.099642,0.188627,0.082305,-0.044637,0.050598,0.235784,-0.000945,0.284452,0.032896,0.056187,-0.411138,0.121083,0.043401,-0.252858,0.030613,-0.138874,-0.322400,0.316081,0.081218,-0.132863,0.032631,-0.037629,-0.344621,0.312841,0.083457,-0.192348,-0.069035,0.172543,-0.223305,0.328526,0.153663,0.010489,-0.054879,0.097100,0.039016,0.112520,0.118898,0.108945,0.177583,-0.003856,-0.480216,0.065799,0.079543,0.061410,0.191892,0.027283,-0.512152,-0.043498,0.172888,-0.078067,0.131617,0.072616,-0.586854,-0.040552,0.265887,-0.132215,-0.030964,0.194761,-0.384690,-0.143754,0.147389,-0.133396,-0.098106,0.103130,-0.172657,-0.263713,0.081681,0.033883,0.192730,0.065475,-0.243137,-0.311509,0.192369,0.126106,0.017564,0.098232,-0.205250,-0.319307,0.196157,-0.055074,-0.015971,-0.044565,-0.194957,-0.402889,0.193859,0.013537,0.011957,-0.029649,-0.258744,-0.467574,0.238448,-0.016945,-0.031688,0.071197,-0.282292,-0.335063,0.039423,0.079356,-0.024673,-0.039969,-0.030984,0.004082,0.008882,-1.215715,-0.138954,0.132330,-0.092071,0.039942,-0.128208,-0.224266,-0.171173,0.143590,-0.201089,0.106655,-0.064563,0.130832,-0.019275,0.114679,-0.112877,0.119021,-0.049292,0.041280,0.009915,0.163061,-0.215236,0.184116,0.150588,-0.181517,-0.096117,0.076439,0.032012,-0.021069,0.264569,-0.140567,-0.019659,-0.057099,-0.179377,0.108010,-0.309810,0.128813,-0.102042,-0.045965,-0.477857,-0.209272,-0.222581,0.142304,-0.038653,-0.034087,-0.612496,-0.168225,0.088065,0.193000,-0.047584,0.116014,-0.710460,0.091361,0.360109,0.276711,-0.003415,-0.124876,-0.095076,0.024913,0.446528,0.127858,0.129038,-0.095899,-0.168727,0.044726,-0.150260,0.193489,0.040676,0.040443,-0.546575,-0.166769,-0.071336,0.176755,0.112679,0.131053,-0.728298,-0.153834,-0.000218,0.025021,0.021756,0.027176,-0.613157,-0.200623,0.297860,0.324570,0.010372,-0.064645,-0.244418,-0.230020,0.446574,0.331471,0.152113,-0.241662,-0.174226,0.036089,0.007655,0.054301,0.090732,0.043185,-0.557705,-0.234514,-0.028365,0.065554,-0.054150,0.093564,-0.860143,-0.138969,-0.071642,-0.011165,-0.112289,-0.276453,-0.792832,-0.304479,0.253455,0.255265,-0.115348,-0.043735,-0.475620,-0.551859,0.185699,0.307029,0.173901,-0.217343,0.125561,-0.010179,0.119483,-0.065860,0.223539,-0.175446,-0.126616,0.237174,-0.047232,-0.000271,0.120888,0.119392,-0.228781,0.132744,-0.143131,0.050252,-0.047172,-0.152716,-0.460779,-0.010211,-0.075660,0.156241,0.007830,-0.358416,-0.208223,-0.242503,-0.074820,0.203966,0.027819,-0.033990,0.035562,0.026608,0.048077,-0.518276,-0.031512,0.027498,-0.120366,-0.085794,-0.053548,0.081338,0.067162,-0.033219,-0.180854,-0.094416,-0.133936,0.117716,0.123841,-0.096652,-0.122063,-0.253087,-0.041022,0.238196,0.023798,-0.017704,-0.184524,-0.220737,-0.070544,-0.044945,-0.011059,0.049577,-0.106082,-0.248388,-0.019272,-0.038216,-0.153400,0.150742,0.156471,0.045885,0.078818,-0.233257,-0.142398,0.097735,0.137777,0.011525,0.072264,-0.022417,-0.103712,0.068363,0.168382,-0.027962,0.121745,0.112832,-0.047445,-0.073730,0.175114,0.081254,0.095763,0.050439,0.075634,0.067418,0.090462,0.043399,0.050788,0.094017,-0.047114,0.058492,0.079036,0.091084,-0.021059,-0.089026,-0.091748,0.001157,0.112489,0.028859,0.015015,0.012310,-0.089157,0.080838,0.310395,0.049922,0.084128,-0.002085,-0.007084,0.032201,0.313948,0.262651,0.105215,-0.108626,0.061142,-0.030467,0.202807,0.225105,0.053535,0.038072,-0.034172,-0.027157,-0.054140,0.144513,-0.055969,0.103669,-0.083286,-0.013373,-0.176291,0.090678,0.115309,0.114152,-0.046812,0.024174,0.007391,0.139501,0.100584,0.084383,0.000699,0.106271,0.043709,0.284071,0.158696,0.030620,-0.023716,0.141944,0.057687,0.123270,0.113287,0.166272,0.070406,0.079599,0.007266,-0.030659,0.078804,-0.032512,-0.032961,0.011086,-0.173119,0.060088,0.046084,0.101177,0.019893,-0.072334,-0.157356,0.054548,0.059985,0.062679,0.068889,-0.035675,-0.040799,0.117163,0.021423,0.122448,0.092101,-0.017306,-0.070189,0.160877,0.044318,0.163576,-0.020147,-0.021685,0.008837,0.029934,0.007521,-0.224663,0.013729,0.043750,-0.053095,-0.060891,-0.018820,-0.068350,-0.014503,-0.135089,-0.086094,-0.119278,-0.170648,-0.053032,0.045740,0.023391,-0.141752,-0.163424,-0.110604,0.020434,0.072709,-0.003952,-0.259050,-0.195338,-0.122860,-0.049221,0.039604,-0.008844,-0.168369,-0.033960,-0.079449,0.116218,-0.059377,0.069534,0.070646,0.002373,-0.005544,-0.158152,-0.009127,0.114703,0.002515,0.022893,0.019655,-0.190019,-0.002014,-0.015441,-0.024744,-0.062834,-0.064604,-0.058117,0.021379,0.000068,-0.067478,-0.051312,0.031349,-0.048556,-0.002028,-0.059783,-0.049994,-0.005495,-0.038341,0.140365,-0.103994,0.099965,-0.012296,-0.059339,0.083883,-0.089140,-0.112370,0.030352,0.050803,0.044998,0.062478,-0.093410,-0.067118,0.098250,0.002980,0.076062,0.083526,0.027157,-0.112816,0.044603,0.047216,0.253478,0.102405,0.003596,-0.084860,0.017538,0.005599,0.132337,0.113276,-0.022372,0.013071,0.054853,-0.193013,-0.015452,0.027551,0.102494,-0.129851,0.136101,-0.117055,0.048131,0.165147,0.011045,-0.057101,0.131381,-0.002147,0.084538,0.189852,0.167925,-0.068240,0.034616,0.103985,0.155194,0.155165,0.114339,-0.001192,0.007411,0.098258,0.170745,0.050382,-0.000400,-0.023643,-0.005645,0.002741,-0.130332,0.056278,0.081049,-0.081058,0.019254,-0.089122,-0.135629,0.018327,0.034741,-0.094246,-0.023543,0.104288,-0.032541,0.032396,0.122883,-0.105688,-0.040477,0.147860,0.030835,0.041541,0.026114,-0.052866,0.033826,0.080674,0.188613,-0.027027,0.017571,-0.039624,0.002657,0.044122,-0.019015,0.038144,0.022568,0.005269,-0.013795,0.080668,0.299941,-0.234527,-0.030103,-0.083500,0.203319,0.231283,0.269867,-0.254625,-0.373333,-0.206095,0.117010,0.017391,0.236912,-0.096500,0.117540,-0.104182,-0.050249,-0.046967,0.202573,0.009407,0.104695,-0.026038,-0.013207,-0.206165,0.342429,0.084913,0.067432,-0.002972,0.116828,0.268294,0.449010,-0.154206,-0.576223,0.011130,-0.011888,0.205191,0.541670,-0.057751,-0.462043,-0.328247,-0.027105,0.116282,0.264100,0.248223,-0.075566,-0.190441,0.009752,-0.098534,0.343720,0.311179,-0.079174,-0.096673,-0.163879,-0.324382,0.358065,0.140122,0.142970,-0.140436,0.172088,0.289440,0.610108,-0.088453,-0.530146,0.012896,-0.011713,0.173694,0.261779,0.142921,-0.028362,-0.156115,0.030702,0.140976,0.018076,0.204619,0.172983,-0.068754,-0.045073,-0.198791,-0.274532,0.384330,-0.089790,-0.153114,-0.125223,-0.403769,-0.061271,0.053572,0.173755,-0.063989,0.241905,0.201516,0.514163,0.179191,-0.235531,-0.006166,-0.076525,0.380684,0.032880,-0.102845,0.191994,-0.090857,-0.176114,-0.213465,-0.351487,0.281700,0.334064,-0.097441,-0.019013,-0.305116,-0.708876,0.027323,0.201207,0.141492,-0.363042,-0.396330,-0.446208,-0.179114,0.195232,0.186161,0.221655,0.115539,-0.026751,0.179556,0.046428,0.127984,-0.162209,0.109357,-0.256615,-0.095283,0.383197,0.181893,-0.263141,0.094102,-0.462265,0.165648,0.211318,0.006201,0.105402,-0.015252,-0.413839,-0.224487,0.274606,0.276170,-0.206513,-0.151794,-0.635758,-0.175468,0.500004,0.010649,0.036694,0.034143,-0.005498,-0.033029,0.418412,0.012125,-0.092231,-0.077125,0.021545,0.105646,-0.234168,0.012499,-0.033775,-0.072523,0.010329,0.152371,-0.191638,-0.046846,0.073248,-0.062134,0.114051,0.106043,-0.146497,-0.043265,0.046662,-0.061769,0.130209,0.166440,-0.224284,-0.022195,0.111288,0.033460,-0.000328,0.158866,-0.292663,-0.002670,0.175751,0.201307,0.058248,0.137625,-0.018736,-0.076260,0.067006,0.184616,0.073152,0.227063,-0.003021,-0.057261,0.044528,0.083001,0.101430,0.240585,0.045751,-0.031124,0.060234,0.064198,0.117641,0.263328,0.163528,0.051260,0.094175,-0.029155,0.053887,0.134837,0.043614,0.029480,0.012695,0.139214,-0.188994,0.000972,0.058744,0.004190,0.071873,0.224134,-0.099604,0.010250,0.139413,0.058861,-0.067713,0.175143,-0.005057,0.004784,0.144168,0.014340,0.060176,0.171599,0.045486,0.036290,0.079681,0.051005,0.136536,0.115162,0.164367,0.130794,-0.048892,0.010651,-0.170725,0.073015,-0.181392,-0.153532,0.080786,-0.040495,-0.074949,0.023435,-0.189802,-0.272974,0.235212,0.064253,-0.040482,0.103343,-0.115352,-0.285885,0.282309,-0.016605,-0.032267,0.201641,-0.084930,-0.170511,0.259682,0.000677,0.074093,0.152486,-0.046094,0.021013,0.029820,-0.024603,-0.204868,-0.153342,-0.042271,-0.104255,0.062079,-0.015053,-0.069316,-0.182817,0.006645,-0.241759,0.115524,-0.099565,-0.001887,-0.230387,-0.030990,-0.241939,0.080768,0.038037,-0.047845,-0.192318,-0.017131,-0.247084,0.066889,-0.025403,0.053711,0.016821,-0.069536,-0.132209,0.072591,0.012560,-0.027404,0.038852,0.031210,0.040097,0.545033,-0.036435,-0.041460,-0.065793,-0.159239,0.048074,0.147018,-0.060581,-0.040487,-0.040232,-0.054382,0.047367,0.202697,-0.004040,0.140863,-0.000112,0.020906,-0.062261,0.147481,0.095342,-0.063432,-0.009295,-0.001324,0.015573,0.136240,0.122099,0.004557,0.067309,0.033644,0.019302,0.029527,-0.064084,-0.145516,-0.035237,-0.031344,-0.042058,0.307127,0.025845,-0.032495,-0.116315,0.058461,-0.031539,0.295099,0.066542,-0.082817,-0.054348,0.066393,-0.044119,0.210756,0.038637,-0.066009,0.017292,-0.004591,0.108823,0.217587,-0.017001,0.136099,0.124968,0.017580,0.056553,-0.028375,-0.072787,-0.102063,-0.063002,0.047128,0.055651,0.201807,-0.025560,0.068110,-0.019531,0.104293,0.115032,0.115481,-0.097346,0.153836,-0.016059,0.037654,0.137960,-0.146909,-0.117616,0.135719,0.051475,0.082944,0.043435,-0.248175,-0.109051,0.089120,0.039083,0.168364,-0.000799,-0.115648,0.056874,-0.062727,-0.120153,0.003547,-0.033836,0.001228,0.152527,-0.056417,-0.016893,-0.005410,-0.003814,0.156100,0.089495,-0.106975,-0.061197,0.084739,-0.052535,0.105590,0.119179,-0.234875,-0.036052,0.195528,-0.027212,0.094603,0.121184,-0.016652,0.065665,0.302939,0.118836,0.084707,0.148674,-0.078163,-0.333103,0.252068,0.147275,0.109973,0.126210,-0.046039,-0.349207,0.166195,0.142959,0.192351,0.043665,0.097315,-0.080115,-0.005041,0.115572,0.221223,-0.021680,0.237747,0.179641,-0.079982,0.263397,0.035259,-0.028585,0.241559,0.214081,-0.005193,0.051548,0.038597,-0.002406,-0.042355,0.041165,0.018081,-0.000594,0.148212,-0.100480,0.038116,0.208618,-0.281682,0.027419,-0.170571,-0.071280,0.027345,0.194295,-0.187989,0.041425,-0.104114,-0.081128,-0.191648,-0.126880,-0.142261,0.189819,0.039606,-0.109431,-0.004239,-0.484792,-0.228981,0.169226,0.120688,0.026468,-0.082885,-0.518583,-0.071637,0.014801,0.216732,0.023183,-0.121101,0.162078,0.079811,-0.012615,-0.069234,0.137105,0.023611,-0.016709,0.051692,0.001729,0.068708,0.078281,-0.083501,-0.244977,-0.021099,-0.007852,0.211501,0.127579,0.080253,-0.393322,-0.315936,0.012477,0.120637,0.019890,-0.091317,-0.192665,-0.279173,0.041349,0.100574,-0.155067,0.265852,-0.104625,0.132968,0.108440,-0.221362,-0.179001,0.216893,-0.247417,-0.012906,0.312644,0.054110,-0.194022,0.161807,-0.326371,-0.361966,0.253461,0.369002,-0.198447,0.269200,-0.405188,-0.641973,0.258325,0.198640,-0.259808,0.171664,-0.281194,-0.635886,0.109096,0.017975,0.052752,-0.097527,0.034229,0.630050,-0.134463,-0.428032,0.209746,-0.296834,-0.045550,0.627206,0.052580,-0.622904,0.235875,-0.288371,-0.076573,0.617738,-0.061274,-0.618507,0.205032,-0.239708,-0.374627,0.438825,-0.154298,-0.367880,0.033114,-0.498297,-0.549228,0.384877,-0.045332,-0.129803,0.146099,0.132813,-0.066694,0.249705,0.188504,0.401849,0.225351,0.031930,-0.149835,0.293126,0.242685,0.332624,0.109701,-0.057755,-0.159012,0.209945,0.253747,0.399939,0.176035,0.209206,-0.141712,0.110816,0.298885,0.358754,0.066131,0.042286,-0.033393,0.128758,0.245258,0.173121,-0.041644,0.047192,0.025582,0.000020,-0.034988,-1.196477,0.113733,-0.026720,-0.080185,-0.274469,0.056197,0.162817,-0.023275,-0.066794,-0.034872,-0.154243,-0.133502,0.008902,-0.060078,-0.045166,0.059219,-0.060333,-0.188781,0.349492,0.089215,-0.004147,0.150746,-0.033439,-0.156037,0.416421,0.169821,0.070970,0.099975,-0.039781,-0.069276,0.385384,-0.019622,-0.016072,-0.115210,-0.174378,-0.021894,0.079720,-0.032386,-0.010286,0.275580,0.210603,-0.215134,0.044258,-0.008983,-0.040868,0.199688,0.359885,-0.146487,0.165806,0.040920,-0.103222,0.041352,0.373130,0.022110,0.118948,-0.041018,0.113883,0.195997,0.202378,-0.008090,0.232097,0.025861,0.030767,0.227876,0.306204,-0.020818,-0.297503,0.020870,-0.036591,0.248067,0.554433,-0.113410,-0.121802,0.023211,-0.063450,0.065700,0.336766,-0.071811,-0.013245,-0.052711,-0.036459,-0.434677,0.643280,-0.096548,-0.313991,0.052664,0.218482,0.130333,0.286953,-0.181742,0.102846,-0.027086,-0.004602,-0.028057,0.514981,-0.301611,-0.367156,-0.052566,0.031814,-0.070068,0.076757,-0.059899,-0.332213,-0.058363,-0.054610,-0.111036,-0.051412,0.061906,-0.337330,-0.119508,-0.257349,-0.314546,0.449120,-0.207668,-0.489823,0.063939,-0.008449,-0.003090,0.063581,0.105832,0.039810,0.055193,0.209789,-0.205552,0.318191,-0.189264,-0.254990,-0.215575,0.050512,-0.163810,-0.018787,-0.105199,-0.277194,-0.311053,-0.242330,-0.163299,-0.011662,0.042236,-0.536108,-0.175018,-0.120862,-0.248259,0.245179,0.168828,-0.340229,0.257082,0.101961,0.012946,-0.171673,0.107727,0.443769,0.034490,0.034371,0.026492,-0.017605,0.045184,-0.007945,-0.070374,0.001909,-0.089955,-0.156621,-0.042574,0.025724,-0.055907,-0.136800,-0.111392,0.029075,-0.051301,0.088760,-0.047453,0.038508,0.073433,0.117783,0.012391,-0.096631,-0.109156,0.105439,0.079194,0.049003,0.120895,-0.108707,-0.122981,0.010902,0.208656,-0.046496,0.249222,-0.050597,-0.028445,0.051703,-0.222555,-0.293995,-0.271438,0.005742,-0.023791,-0.081111,-0.265109,-0.105455,-0.174360,0.168274,0.023638,0.046295,-0.211556,0.038173,-0.001173,-0.134392,-0.111020,0.134736,-0.243826,0.068539,0.133889,-0.194961,-0.098772,0.212554,-0.093965,-0.046015,0.249382,-0.120647,0.011330,0.111433,-0.280671,-0.081622,-0.213049,0.064624,-0.016252,-0.096084,-0.062346,-0.288567,-0.199953,0.142782,0.038176,0.007010,-0.215743,-0.218129,-0.004112,-0.032760,-0.057032,0.115798,-0.313316,-0.134661,-0.005151,-0.283347,-0.115935,0.201672,-0.186467,-0.067523,0.166484,-0.333005,0.037916,0.293816,-0.154222,0.003205,-0.138623,-0.070331,0.074262,-0.039509,-0.113965,-0.260519,-0.197173,0.140981,0.084609,-0.045425,-0.047757,-0.340512,-0.003139,0.130157,0.092062,-0.008530,0.122859,-0.267542,-0.146270,-0.069148,-0.003860,0.017988,-0.001143,-0.202203,-0.050728,-0.283891,-0.005746,0.267225,-0.218534,0.047434,-0.044508,0.060469,-0.092526,0.002895,-0.079330,-0.199725,-0.029468,0.070259,-0.051163,-0.081079,-0.005040,-0.109938,0.070352,0.136866,-0.002258,-0.009351,0.114318,-0.023949,-0.034229,-0.012110,0.016218,0.070336,0.081828,0.006814,0.003170,-0.167368,-0.005119,-0.009020,0.043118,-0.026257,0.045715,-0.444365,0.158024,-0.176470,-0.093594,-0.011219,-0.197639,0.146091,0.086434,-0.124134,-0.130852,-0.018629,-0.188251,-0.134314,0.046709,-0.038919,-0.134901,-0.011035,-0.050492,-0.116965,0.018316,-0.013123,-0.158756,-0.052426,0.093477,-0.230169,-0.031241,0.014432,0.038573,-0.090873,0.003236,-0.184102,0.068221,-0.019104,0.021893,-0.002612,-0.085529,-0.019787,0.050358,-0.077059,-0.195162,-0.121386,-0.021310,-0.143428,0.052419,-0.042652,-0.151007,-0.264082,0.144672,-0.260486,-0.083618,0.069523,-0.107873,-0.210590,0.165799,-0.396504,-0.139911,0.079372,0.214318,-0.124168,0.132019,-0.332055,0.039770,0.107086,-0.065395,-0.140574,0.033160,0.121587,-0.066201,0.115127,-0.215305,-0.197154,0.109343,0.099378,-0.046153,0.109189,-0.076653,-0.261805,0.157723,0.005606,0.006760,-0.042268,0.012792,-0.092744,0.139905,-0.178732,0.032038,0.013030,0.246940,-0.036421,0.156839,-0.202621,-0.127240,0.049250,-0.018669,-0.184583,0.078413,0.115944,-0.067007,0.085148,0.009088,0.111699,0.164194,0.224899,-0.044357,0.062872,0.046211,0.009673,0.101958,0.235223,0.035575,0.021176,0.059595,0.195391,0.199887,0.041738,0.151353,0.122174,0.135035,0.223026,0.118407,-0.033945,-0.019921,0.041831,0.054653,0.121578,-0.131173,0.154602,-0.066429,0.015572,0.211437,0.216078,-0.112721,0.268430,-0.068875,0.034559,0.324683,0.188078,-0.040803,0.166870,0.007971,0.023383,0.288445,0.243412,0.048762,0.044428,-0.013652,0.075736,0.250402,0.205824,0.116474,-0.011082,-0.011946,0.003825,-0.032086,-0.011956,0.000575,-0.334854,-0.084592,-0.068267,0.064592,-0.150635,-0.131980,0.158114,-0.056301,-0.004659,-0.051164,-0.106288,-0.223891,0.139469,0.064753,-0.055398,-0.071860,-0.063279,-0.192780,0.100992,0.071619,-0.031770,-0.119780,-0.060803,-0.054855,-0.001035,-0.075539,0.017038,-0.132927,-0.131743,0.017692,-0.043679,-0.085217,-0.168275,0.070918,-0.045284,-0.087622,0.088987,-0.070233,0.035925,-0.048735,-0.083876,-0.217318,-0.030463,-0.083114,-0.025545,-0.061157,0.016203,-0.093210,-0.157639,-0.081278,0.031925,-0.100140,0.043443,0.005416,-0.232889,-0.104679,0.086194,-0.024793,0.065035,0.033965,-0.210909,-0.016992,-0.020958,0.042001,-0.089391,-0.014401,0.024647,-0.006489,0.127646,-0.092865,-0.081526,-0.073039,0.057072,0.003146,0.029808,0.059068,-0.010829,0.046324,-0.010987,-0.060484,-0.050711,0.120247,-0.034136,0.093707,-0.181397,0.024041,0.018146,0.102809,-0.000340,0.085364,-0.107544,0.010472,0.059852,-0.049405,-0.104883,-0.034932,0.129847,0.042624,0.149779,-0.173793,-0.097154,0.003684,0.009321,0.015368,0.097181,-0.072348,-0.095247,0.126278,-0.184944,-0.033081,-0.046498,0.036481,0.037079,0.163695,-0.204962,0.003609,0.061412,0.030213,0.016810,0.108590,-0.021549,0.077298,-0.023674,0.042536,-0.090291,-0.014295,0.082644,0.072565,0.075309,-0.098462,-0.041270,-0.064789,0.026062,0.057200,0.030439,0.037112,0.016105,0.066003,0.038718,0.027493,-0.058808,-0.070673,0.044344,0.151396,0.021631,0.124340,-0.048769,0.049454,0.027119,0.073850,0.062742,-0.017425,0.040979,0.025341,0.015963,-0.004262,0.231275,-0.294944,0.196331,0.005283,-0.034213,-0.180964,-0.651996,-0.100369,-0.200243,0.128220,-0.007614,0.008146,-0.120975,-0.039044,-0.049716,-0.142522,0.040614,0.173864,0.063485,0.107537,0.175656,-0.705076,0.166676,0.284902,0.292009,0.008441,-0.029506,-0.448963,0.174731,0.319977,0.272846,-0.138532,0.207566,-0.080658,0.246222,-0.295880,-0.594880,-0.025631,0.100778,-0.162111,0.242535,-0.163660,-0.210115,0.045854,0.096660,-0.461935,-0.031904,0.285174,0.246264,0.212439,0.079138,-0.766368,0.086683,0.417941,0.448483,0.104796,-0.153222,-0.329616,0.097659,0.438208,0.269497,-0.013323,0.251864,-0.134356,0.491666,-0.357497,-0.212206,0.079771,0.118338,-0.449328,0.394375,-0.270326,0.141301,0.106315,-0.011331,-0.397809,0.082274,0.112203,0.306785,0.195358,-0.010223,-0.677237,-0.264518,0.587253,0.401539,0.149105,-0.292748,-0.538892,-0.157083,0.374142,0.399237,0.164147,0.123929,-0.129858,0.516678,-0.174941,-0.030456,0.109234,0.142309,-0.474497,0.293795,-0.239291,-0.096928,-0.086110,-0.162317,-0.550433,-0.057682,0.346145,-0.013859,0.003216,-0.004509,-0.812369,-0.588790,0.479173,0.359379,0.138582,-0.274294,-0.438492,-0.238043,0.364599,0.368957,0.225707,0.072513,-0.177713,0.029840,0.044713,0.156778,0.194188,0.246468,-0.790765,-0.105667,0.065645,-0.216221,-0.135071,-0.086745,-0.929987,-0.331786,0.320670,-0.008534,-0.088395,-0.046543,-0.461144,-0.513953,0.389996,0.080540,0.108032,-0.319890,-0.023508,-0.008025,0.202232,-0.024095,-0.030599,0.032278,-0.032186,0.024392,0.008016,0.129655,-0.059222,-0.019058,-0.084882,-0.041108,0.000006,-0.135451,-0.062206,0.033072,0.116400,-0.015334,0.184168,0.012780,0.031384,0.048359,0.021499,0.041705,0.164603,0.138824,-0.020404,0.110071,-0.076004,-0.052111,0.113570,0.171720,0.014377,0.046776,-0.149298,-0.032648,0.139419,0.078469,-0.016461,0.075483,-0.064151,0.011943,0.030402,-0.114507,-0.044069,0.018055,0.074722,0.169773,0.063260,0.024376,-0.002684,0.009945,0.024679,0.184775,0.113559,0.199225,0.067584,-0.084414,0.001191,0.171307,0.005690,0.400405,-0.023628,-0.058176,0.059874,0.003309,0.054304,0.311760,-0.035550,0.050585,0.036049,-0.037943,0.039556,-0.144548,-0.137390,0.048732,0.225730,-0.134276,0.024336,0.048450,-0.138068,0.080080,0.121286,0.153515,-0.008531,0.143780,-0.147335,0.016455,0.015279,0.231976,-0.015820,0.335693,-0.056983,0.030173,0.141268,0.153243,-0.022433,0.213720,-0.018900,-0.086429,-0.021855,-0.117950,-0.010110,-0.168742,-0.072288,-0.179880,-0.010798,-0.104370,-0.048902,-0.212390,-0.002687,-0.109056,0.004282,0.019236,-0.216161,-0.051598,0.014592,-0.048039,-0.003363,-0.040308,-0.234679,0.026775,-0.015543,0.043640,0.117563,-0.110328,-0.204994,0.023057,0.056853,-0.058253,0.072711,-0.057597,0.110641,-0.107050,-0.035200,-0.047907,0.069390,-0.010916,0.132728,-0.151082,-0.041299,-0.060007,0.066668,0.052509,0.078378,-0.112106,-0.010717,0.010532,0.102014,0.101621,-0.015617,-0.043654,-0.013265,0.003536,-0.001346,0.075684,-0.100358,-0.030584,0.047974,-0.001531,0.025826,-0.006307,0.030844,-0.244217,0.047341,-0.053560,-0.016111,0.045670,0.124797,0.023846,0.020509,-0.050141,-0.078036,-0.030753,0.143412,0.012293,-0.006444,0.032285,-0.140855,0.090221,0.036466,-0.075190,-0.051816,0.100703,-0.073339,0.078992,0.047018,-0.138009,-0.083406,0.045527,-0.059885,0.096107,0.121142,-0.121373,0.023421,-0.079769,0.021496,0.025755,0.072445,0.067244,-0.113023,-0.022245,-0.140062,0.074143,0.088820,0.165775,-0.000593,0.008773,-0.051887,0.091745,0.021092,0.040175,0.024865,0.108069,-0.182678,-0.004752,0.020318,-0.112052,-0.022109,0.018809,-0.203414,-0.056738,0.001901,-0.153837,-0.036475,-0.017719,-0.065036,0.137523,-0.019350,0.100744,0.076254,-0.052776,-0.014598,0.053850,-0.028217,0.157894,0.038629,-0.027276,-0.058045,-0.089756,-0.038357,-0.020290,0.012290,-0.004116,-0.229352,-0.185990,-0.074127,-0.156966,0.085587,0.036887,-0.211375,-0.148558,-0.093961,-0.088946,-0.108047,-0.029497,-0.033369,0.067076,-0.163999,0.204520,0.026551,0.002628,-0.021560,-0.003062,-0.107430,0.167506,0.061339,-0.074057,0.143745,-0.091058,-0.159622,-0.055780,0.056772,-0.023502,0.164625,-0.142801,-0.210856,-0.298430,0.061142,0.026205,0.030133,-0.270132,-0.073075,-0.147776,0.062293,-0.075515,0.009087,0.221810,-0.164334,0.107416,0.060573,-0.046257,0.184396,0.079114,-0.253019,0.027658,-0.009748,-0.115438,0.231907,-0.119535,-0.183005,-0.105034,-0.006546,-0.084625,0.070707,-0.176537,-0.181468,-0.269901,-0.015200,0.031124,-0.062592,-0.227620,-0.093463,-0.139557,-0.031976,0.013350,-0.041015,-0.047983,0.008824,0.262935,0.023522,0.010260,-0.075661,-0.026126,-0.016666,0.051178,0.074497,0.017023,0.026402,-0.031836,-0.049943,0.127878,0.074533,0.004699,0.110421,-0.155789,-0.052301,0.046344,0.038265,0.012051,0.053897,-0.133943,-0.055110,0.015807,0.068736,0.027202,0.043947,-0.096297,-0.027630,0.075920,0.061249,-0.002132,-0.012256,-0.096063,-0.010188,-0.038249,-0.001381,0.022914,0.039940,0.000401,-0.083925,0.152128,0.046388,-0.096326,-0.062926,0.131056,-0.061313,-0.016208,0.039911,0.006327,-0.019551,0.073241,-0.052818,0.019536,0.008487,0.046563,-0.005020,0.035237,-0.000354,0.093386,-0.006359,-0.079629,0.111979,-0.095640,0.032717,-0.051337,0.001453,0.012921,0.141874,0.035841,-0.064383,-0.056707,-0.053761,-0.111856,-0.028435,0.138100,-0.025740,-0.185887,-0.062421,-0.047279,0.063645,-0.006743,0.027913,0.007833,-0.051679,-0.017801,-0.083461,-0.028830,-0.012476,-0.117911,0.015280,0.065179,-0.205455,-0.050985,-0.004264,0.005961,0.071052,0.196364,-0.208023,-0.120124,0.004716,0.045464,0.028155,0.049365,-0.162188,0.099345,-0.072232,0.136980,0.068310,0.007143,-0.010915,-0.038163,0.069802,-0.005159,0.040144,-0.077544,-0.028359,0.061910,0.011569,-0.088361,-0.144727,0.044952,0.024705,-0.038536,0.025130,0.006621,0.009218,0.123347,-0.031011,0.073199,-0.009779,0.008933,0.025265,-0.139759,0.010180,0.124463,-0.008784,0.046434,-0.026802,0.054405,0.144387,-0.034524,0.055476,-0.037057,-0.003609,-0.033582,0.123861,0.035472,0.065618,-0.101888,0.048904,0.033300,0.004942,0.016057,-0.047031,-0.018298,0.028438,-0.176688,0.423565,0.130988,0.013926,-0.112274,0.015287,-0.109300,0.304142,0.150962,-0.158088,-0.338195,0.020867,-0.116672,0.012441,0.129636,-0.080054,-0.107449,0.010933,-0.060013,-0.174299,0.211667,-0.278536,0.075549,0.011171,0.058640,-0.403270,0.039034,-0.241470,0.092777,-0.077943,-0.162733,0.540876,0.192312,0.228369,-0.459747,-0.110583,0.115634,0.344182,0.272396,0.068592,-0.553385,-0.144838,0.076256,-0.016934,0.275686,0.023460,-0.159612,-0.072447,-0.067056,-0.204105,0.131698,-0.022476,0.088836,0.071399,-0.052973,-0.477344,0.237711,-0.103124,0.113693,-0.025913,-0.092331,0.421705,0.138522,0.415997,-0.396292,-0.009121,0.272826,0.272729,0.353686,0.056752,-0.402546,-0.109932,0.084811,0.025799,0.293547,-0.088839,-0.172181,0.030840,0.018118,-0.136169,-0.043155,0.023432,0.196588,0.145648,-0.243870,-0.463397,-0.089658,0.024190,0.257442,-0.088472,-0.142073,0.465204,-0.077100,0.269332,-0.278033,-0.033176,0.093455,0.250719,0.204066,-0.015051,-0.298026,0.004890,0.005524,-0.187075,0.161426,-0.154891,0.016113,0.023234,-0.009345,-0.153570,-0.242460,-0.065913,0.368062,0.144473,-0.195774,-0.561816,-0.294663,0.069979,0.611989,-0.067574,-0.107576,0.334524,-0.087131,0.098335,-0.071435,-0.049306,0.071258,0.062656,0.336710,-0.095585,-0.066447,0.007419,0.160550,-0.232517,0.152347,-0.230507,0.040198,0.052233,-0.041672,-0.276387,-0.052982,0.069691,0.319130,0.181894,-0.158351,-0.155002,-0.247803,0.088952,0.641337,0.048294,-0.021435,-0.026974,-0.002379,-0.041556,1.333999,0.167434,0.061854,-0.583940,0.397396,-0.260722,0.109366,0.090148,0.228272,-0.741612,0.016338,-0.120244,0.263974,-0.054240,0.123941,-0.818680,-0.134866,-0.018335,0.096707,0.106450,-0.038604,-0.356985,0.274785,-0.031470,0.058054,0.082923,-0.056428,0.024341,0.469339,0.048637,-0.061228,0.270338,0.005222,-0.651632,-0.082143,-0.119298,0.223061,0.223500,-0.213437,-0.817195,-0.312174,-0.277578,0.072449,-0.040188,-0.355440,-0.546358,-0.048053,-0.033822,-0.068456,-0.075106,-0.127925,0.066181,-0.086579,0.120039,-0.016757,-0.196666,0.092346,0.149053,-0.037516,0.098711,-0.031894,0.009457,0.155934,0.022802,0.192508,-0.003307,0.289423,-0.045857,-0.042910,-0.121047,-0.067755,0.187978,0.637134,-0.044749,0.057699,0.232261,-0.254348,-0.019333,0.838493,0.139507,-0.029689,0.331894,-0.185853,-0.133619,0.116514,-0.173666,0.160710,0.395705,0.059677,0.118269,-0.157505,-0.025489,-0.122322,0.342033,0.058857,-0.039844,-0.254022,-0.050333,-0.162591,0.237417,-0.258385,-0.031539,-0.422855,-0.144279,-0.229166,0.114396,-0.580753,-0.026490,-0.259840,-0.175948,-0.260376,0.460425,-0.067154,0.115875,-0.038477,-0.050773,0.272484,0.349056,0.353763,-0.115626,-0.095130,0.103277,-0.111451,0.010106,0.101045,0.017192,-0.061272,0.088430,0.263310,0.151606,-0.088146,-0.072269,-0.269286,-0.040380,0.160606,0.014061,-0.325421,0.009427,-0.424278,-0.117610,0.152818,0.133693,-0.356849,0.106834,-0.158203,-0.041841,0.395298,0.628565,-0.501373,0.298719,0.215572,0.002254,0.000685,-0.020522,-0.014565,-0.003249,0.007979,-0.054123,0.057259,-0.095204,0.058447,0.103590,-0.009565,0.051708,0.022470,-0.040785,0.006802,0.038512,0.183170,0.086041,-0.110777,0.040441,0.046597,0.014045,0.073360,0.164013,-0.098052,0.035856,-0.059166,-0.129679,-0.071745,0.035401,0.038426,-0.007353,-0.087751,-0.113602,-0.188706,-0.012515,0.006077,-0.069657,0.159114,0.076213,0.092739,0.106934,0.031228,-0.000443,-0.026209,0.107953,0.207485,0.072389,-0.086269,0.088109,0.057549,0.093005,0.172429,0.183526,-0.159348,0.173346,-0.260041,-0.035209,0.114485,0.109118,-0.024455,-0.019081,-0.223438,-0.129934,-0.088855,0.108558,0.113662,-0.122342,0.184073,0.044816,0.300114,0.075752,0.106179,-0.154268,0.126922,0.080386,0.334125,0.058385,-0.012842,-0.027456,0.141789,0.173102,0.272946,0.107251,-0.043226,-0.108247,0.188904,0.055734,0.087874,0.140949,-0.153512,-0.171555,-0.032689,0.013993,-0.037358,0.061250,0.096983,-0.252668,0.292274,0.188249,0.161307,-0.006612,0.201976,-0.239897,0.345367,0.119263,0.172742,-0.024499,0.072151,-0.150627,0.223986,0.187121,0.178654,0.024234,0.003065,0.016716,0.193128,0.075078,0.133733,0.104558,-0.130092,0.028693,-0.047684,-0.047173,0.003951,-0.016644,0.109483,-0.057813,0.216074,0.107615,-0.053591,-0.012046,0.043032,-0.010071,0.251756,0.112403,-0.096855,-0.102160,-0.091910,-0.112951,0.253272,0.130823,-0.024814,-0.050726,-0.098217,0.000098,0.288344,0.050089,0.054237,0.031334,-0.157783,-0.062448,0.167140,0.033463,0.119079,0.008409,0.020403,-0.028820,-0.038549,0.004183,-0.371753,-0.217926,0.156435,-0.054425,-0.181785,0.242086,0.151069,-0.104639,-0.040190,-0.205488,-0.023325,0.334938,0.281668,-0.009608,0.002463,-0.355078,0.012727,0.232911,0.542284,-0.018814,0.047364,-0.430941,0.050437,0.149039,0.441566,0.161226,-0.176988,-0.419131,0.209808,0.187008,0.261254,-0.005300,-0.008276,0.136272,-0.228082,-0.225461,-0.220486,-0.043652,0.048040,-0.083177,-0.342135,-0.150896,-0.407141,0.019550,0.136001,-0.174940,-0.263842,-0.003374,-0.453610,-0.065294,0.319326,-0.266857,-0.347849,0.252181,-0.438605,-0.146275,0.109017,-0.228049,-0.263166,0.268322,-0.183058,0.097289,-0.030320,0.085778,0.236411,-0.323019,0.317677,0.036959,-0.072341,0.064198,0.207786,-0.351458,-0.069768,-0.097004,-0.109193,-0.069093,0.022091,-0.098918,-0.264162,-0.080917,-0.034250,-0.073418,-0.366691,0.082465,-0.413802,-0.104123,-0.158310,-0.208694,-0.460092,0.094021,-0.319238,0.053966,0.079212,0.059869,0.044747,-0.146382,0.006107,0.056373,0.045049,0.057407,0.060078,-0.136296,-0.086598,0.094457,0.076589,-0.205249,-0.062316,-0.064707,-0.205330,0.103265,-0.053007,-0.363735,-0.208939,0.105686,-0.267926,0.032829,-0.098822,-0.328738,-0.242495,0.153224,-0.142626,0.171252,-0.015555,-0.136500,0.098529,-0.168974,0.112762,0.144270,-0.013787,-0.076424,0.028568,-0.181626,0.097847,0.048227,0.240122,-0.235605,-0.178270,-0.138440,-0.097547,-0.027274,0.075208,-0.334950,-0.217648,-0.032482,-0.042597,-0.006498,-0.119463,-0.347642,-0.291583,-0.079126,-0.102735,-0.025820,-0.029504,0.034725,-0.038830,0.038467,-0.261782,-0.082141,0.065585,-0.370926,-0.202818,-0.126254,-0.050130,-0.035841,-0.079011,-0.146705,-0.034079,-0.058535,0.075463,-0.018457,-0.090071,-0.402079,0.159583,0.137556,-0.114893,0.075427,0.134023,-0.281831,0.004814,0.103490,0.002103,-0.173234,-0.014093,-0.077341,-0.291092,0.021434,0.189139,-0.005720,0.076840,-0.308818,-0.281453,-0.209553,0.061016,-0.064370,0.025976,-0.430720,-0.226526,-0.010782,0.235866,-0.034116,0.013398,-0.839951,0.038488,0.152344,0.211209,0.076202,-0.080697,-0.427998,-0.135958,0.015088,0.018822,-0.017040,0.003381,-0.144197,-0.279937,-0.040447,-0.026926,0.102692,0.126996,-0.444497,-0.125148,-0.385640,0.177539,0.268207,-0.134890,-0.362807,-0.058470,-0.275389,0.278080,0.132655,-0.184435,-0.204303,-0.018481,0.017850,0.074693,0.014715,-0.274676,0.191360,-0.053644,0.043877,0.117315,-0.072805,0.008259,0.200058,-0.003858,-0.044418,0.054984,-0.087883,0.127459,-0.148287,0.283796,-0.201365,-0.102578,0.030271,0.056448,-0.109443,0.111452,0.272934,0.265678,0.014741,0.291172,0.521903,-0.057634,0.321619,0.217077,0.047897,-0.036021,0.825109,-0.008896,0.002654,-0.339362,-0.025113,0.226006,0.781430,0.142028,0.042353,-0.385286,0.098100,0.211869,0.044283,0.083396,-0.155398,-0.259048,0.030438,0.062938,-0.002613,-0.152441,0.088626,-0.213576,-0.139487,-0.077889,0.280474,-0.333425,-0.068669,-0.221817,-0.195372,-0.181587,0.637279,0.001744,0.000658,-0.217662,-0.072438,0.266528,0.695304,0.426608,0.076996,-0.091701,0.001924,0.027834,0.037707,0.037228,0.025426,-0.715148,-0.147331,-0.048896,0.074207,0.385956,-0.064774,-0.238345,-0.048825,-0.299444,0.098177,0.415253,-0.059727,-0.077352,0.023917,0.016994,-0.040677,0.166682,-0.031799,0.072110,0.061908,0.135656,-0.076791,0.304363,-0.014226,0.106354,0.014637,-0.150625,-0.107394,0.290843,0.139193,-0.037856,0.017460,-0.037690,-0.029002,0.296322,-0.004569,0.153541,-0.049321,0.031184,-0.131298,0.327701,0.157309,0.174314,0.024956,0.087022,-0.106728,0.243717,0.194473,0.291892,0.113306,0.056761,0.046003,0.372046,0.250141,0.209139,0.043340,-0.325619,-0.278356,0.321415,0.300144,0.058343,0.163864,0.295808,-0.045416,0.002900,-0.063642,-0.073166,0.109136,0.021408,-0.080447,-0.054293,-0.101691,-0.089694,0.046385,-0.059786,0.136056,-0.088922,0.007516,-0.085314,-0.210150,0.066425,-0.053905,-0.156926,0.349284,-0.230379,-0.218460,-0.082747,-0.271465,0.222381,0.389151,-0.039036,-0.045964,-0.014556,-0.227069,-0.227230,0.022733,-0.242690,0.038622,-0.083876,-0.222150,-0.340544,0.105172,-0.115073,-0.012753,0.232895,-0.394676,-0.385530,0.043107,0.013812,-0.221191,0.389105,-0.374973,-0.304272,0.108888,0.007348,-0.202583,0.238069,-0.228469,-0.231378,0.289272,-0.009824,0.000260,0.034878,-0.294125,-0.152740,0.121431,-0.199330,-0.034694,0.055258,-0.425758,0.019872,0.139133,-0.065989,-0.092191,-0.059631,-0.446452,-0.019717,-0.078108,-0.067532,-0.105404,-0.132053,-0.368751,-0.143822,0.066303,-0.133405,-0.183179,-0.079569,-0.468653,-0.137305,-0.024960,-0.351792,0.032864,-0.030929,-0.000887,0.035717,-0.032446,1.094174,-0.049382,-0.088410,-0.040730,0.088520,0.092527,-0.202783,-0.042335,0.107340,0.143670,0.139762,0.059916,-0.283557,-0.067518,0.092946,0.206290,0.111727,0.064525,-0.127023,-0.080198,-0.007382,0.130087,-0.013858,0.098262,0.117926,-0.030249,0.014343,-0.002824,0.101973,0.054279,0.145620,0.003853,0.094942,-0.182480,0.052723,0.081681,-0.016351,0.056891,0.192280,-0.043220,0.068829,-0.104981,-0.107157,0.022434,0.078438,-0.025204,0.001721,-0.060337,-0.021055,-0.041074,-0.033692,0.014768,-0.080984,-0.066860,0.173564,-0.043461,-0.111963,0.027256,0.116015,-0.138622,0.134487,0.024558,-0.058270,-0.196973,-0.088238,0.055215,0.002269,0.120321,0.010961,-0.217315,-0.036829,-0.117216,-0.014687,0.056588,-0.073252,-0.257858,-0.080699,-0.054012,0.165177,0.023206,-0.076134,-0.194350,-0.096818,-0.038771,0.275388,0.066664,-0.057864,-0.044564,-0.005805,-0.133638,0.265833,-0.078865,-0.140755,0.026292,-0.344938,0.083381,0.019603,0.027349,-0.099778,0.000259,-0.165498,-0.077650,0.102849,0.047050,-0.157427,-0.115265,-0.179216,0.015931,0.131395,0.124430,-0.029331,-0.200662,-0.088756,-0.037054,0.141308,0.147768,-0.004452,-0.082953,-0.072783,-0.069813,0.028130,-0.045345,-0.177075,-0.059120,-0.059880,0.064083,-0.003757,0.019654,-0.013449,-0.000838,0.012676,-0.055957,0.091429,0.002582,-0.031988,-0.044835,-0.023318,-0.071696,0.049658,-0.024993,0.054514,0.020575,0.042068,-0.015734,0.034094,0.043541,0.035528,0.092511,0.116927,-0.040822,-0.169128,0.021700,0.034375,0.035726,0.044555,0.036398,0.442697,0.048491,0.196934,-0.234417,0.078130,-0.188017,-0.051865,-0.029021,0.071304,-0.066739,0.144547,-0.102713,-0.116494,0.030562,-0.157192,0.323646,0.131229,-0.110593,-0.381292,-0.094062,-0.046230,0.223554,0.199320,-0.273516,-0.331027,0.039479,0.237959,-0.218751,0.604241,-0.218925,-0.293326,-0.110329,0.211068,0.161784,0.135415,-0.093499,-0.013562,-0.150210,-0.042961,0.377112,0.177584,0.015838,-0.321181,-0.123825,-0.119557,0.378906,0.276169,-0.161987,-0.365665,0.081671,-0.188160,0.278185,0.672885,-0.263957,-0.404704,0.059387,-0.045804,-0.092665,0.288377,0.147752,-0.283264,-0.075105,0.198747,0.399837,0.187916,0.009455,0.031782,-0.141101,-0.025601,0.225468,0.352101,0.060296,0.035076,0.026021,-0.280562,0.153121,0.729957,0.075487,0.166041,-0.027100,0.106859,-0.094282,0.395028,0.323221,0.074430,0.092975,0.386923,0.774153,-0.227287,0.280534,-0.068081,-0.078515,0.049024,-0.162318,0.051194,0.013123,0.387490,0.031392,-0.304928,-0.202333,0.189499,0.154130,0.388961,0.169900,-0.052662,-0.224192,0.135293,0.052298,0.303920,0.094739,0.346318,0.412747,-0.384098,0.160214,0.333072,-0.037229,-0.009527,0.331266,-0.161268,0.282597,-0.577135,0.467511,-0.258681,-0.189775,-0.450587,-0.113643,0.575805,0.355477,-0.003383,-0.315920,-0.687856,-0.053430,0.693205,0.207177,0.303159,0.060104,-0.891387,0.035026,0.553974,0.134347,0.052019,0.081339,-0.868621,0.065379,0.048553,-0.168182,0.039388,-0.001895,-0.166556,-0.157376,-0.375303,-0.036273,0.033493,-0.018694,0.023315,0.020580,0.361702,0.100162,0.101490,-0.041894,-0.047678,0.140099,0.030232,0.079521,0.060968,-0.097747,0.015006,0.054932,0.098925,0.035284,-0.008114,0.055445,-0.002291,-0.052964,0.018238,-0.025784,-0.032437,0.085707,-0.071005,-0.051706,-0.049082,-0.032241,0.040237,0.116406,-0.035489,-0.171311,-0.175148,0.018166,0.053695,0.006702,0.062415,0.136538,-0.043803,0.065543,-0.058195,-0.001604,0.017665,0.076035,0.103585,0.041752,-0.044782,0.007697,0.037789,-0.014953,-0.074199,0.028167,-0.077025,0.151832,-0.036095,-0.112249,-0.043400,0.005464,-0.013798,0.007985,-0.036958,-0.140744,-0.216835,0.044860,-0.010344,-0.097777,0.076337,-0.037923,0.034507,0.014367,-0.036665,0.024264,0.011268,0.027969,0.190139,0.106079,0.023067,0.053549,0.017128,-0.080625,0.002277,0.158697,-0.043577,0.139958,-0.084410,-0.098678,-0.054894,0.148089,-0.073429,-0.097835,0.006940,-0.027113,-0.033060,-0.079666,0.093340,-0.061376,0.109929,-0.002021,0.024110,-0.044976,0.035037,0.037396,0.064830,0.027339,0.214371,-0.020820,-0.001019,0.049372,-0.075905,0.052938,-0.009747,-0.012316,-0.040998,0.027940,-0.125298,-0.052611,0.125828,0.058015,-0.094843,-0.187794,-0.142068,-0.040098,0.115385,-0.029759,-0.003296,-0.105586,0.146017,-0.029098,-0.051498,-0.081304,-0.083134,0.005793,0.099986,-0.063823,0.154583,0.049063,-0.115758,-0.029078,0.149294,0.051948,-0.042316,0.024658,-0.050870,0.259396,0.042316,-0.186841,0.042726,0.094382,-0.096483,-0.052144,-0.024005,-0.046958,0.070998,0.046405,-0.021374,0.025594,-0.026144,-0.048621,-0.353964,-0.194696,0.217474,0.204777,-0.233005,0.120791,-0.144192,-0.039084,0.173759,0.007697,-0.227604,0.018196,0.035749,-0.015347,0.064872,-0.347400,-0.365022,-0.104762,0.277578,0.068902,-0.097525,-0.427002,-0.333775,-0.018642,0.283528,0.000227,-0.176946,-0.248715,-0.318986,-0.008949,0.116511,-0.102887,-0.080452,-0.003505,0.218621,-0.113517,-0.402797,0.021986,-0.064890,-0.580445,0.270929,-0.049428,0.099050,-0.027503,-0.050673,-0.901990,0.010032,-0.019563,0.542690,0.073647,-0.073729,-0.579087,-0.270012,0.079259,0.156282,-0.031645,-0.045093,-0.177130,-0.223045,0.088167,-0.299515,0.071957,0.044821,0.067757,0.125461,-0.114458,-0.017696,0.107484,0.030069,-0.372406,0.027041,-0.060848,0.353893,0.101946,0.137798,-0.416193,0.090339,0.097107,0.240666,0.054194,0.003986,0.061238,-0.149145,0.060088,-0.299184,-0.093641,0.133065,0.047176,0.055068,0.157799,-0.558803,-0.075398,0.168820,0.194380,0.257113,-0.050853,-0.094520,-0.016774,-0.209689,0.302819,0.181714,0.091659,0.024701,-0.071510,0.062344,0.548259,0.246167,0.185070,-0.115479,-0.200820,0.110628,0.276629,0.378672,0.076093,-0.464727,-0.120305,0.022507,0.246420,0.590773,0.046293,-0.224771,-0.128388,0.285356,0.319993,0.585093,-0.067726,-0.201191,-0.127849,0.045761,0.198707,0.620935,0.182140,-0.235860,0.020518,0.091196,0.144176,0.406518,-0.150702,-0.393958,0.127345,-0.127725,0.215276,0.247369,0.097411,-0.229126,0.210278,-0.147885,0.013876,0.188851,0.251674,0.169017,0.047177,-0.021603,-0.030184,-0.038830,-0.022277,0.489010,0.021563,-0.091467,-0.034008,-0.009805,-0.055077,-0.031372,0.029112,-0.106711,-0.134656,0.034268,-0.069802,-0.029588,0.027548,-0.025280,-0.040838,0.000422,-0.020298,-0.187837,-0.020238,-0.018381,-0.091219,0.035755,0.081206,-0.173214,-0.032679,0.006522,-0.034751,-0.052293,0.044299,-0.181681,-0.018160,0.001699,0.051330,-0.173234,0.016827,0.042062,0.059875,-0.048460,0.059933,-0.130692,-0.013281,-0.098491,0.067667,0.111086,0.085941,-0.027580,-0.009500,-0.129059,-0.005367,0.069402,0.070114,0.081543,0.022252,-0.155518,0.022875,0.021679,-0.081161,0.084097,0.100838,-0.085024,0.054592,-0.088296,-0.016143,-0.077138,-0.075496,0.086442,0.068804,-0.043467,-0.000979,-0.104106,-0.086039,0.028607,0.090536,-0.027193,0.177075,-0.047252,-0.064733,-0.052500,0.050327,-0.021986,0.151524,-0.050529,-0.037785,-0.138596,0.083505,-0.059400,-0.050419,-0.078816,0.029461,0.023640,0.078110,0.138816,0.047819,-0.100639,-0.051832,0.119568,0.006886,0.106089,0.144850,-0.214301,-0.116140,0.165811,-0.006979,0.098969,0.098643,-0.068249,-0.134432,-0.022565,0.005829,0.010208,0.046878,-0.099434,-0.138705,0.051935,0.156214,-0.056260,0.056093,0.052356,0.036944,0.070268,-0.051337,-0.101399,0.078707,-0.058569,-0.109739,-0.067483,-0.071845,-0.087712,-0.021874,0.064354,-0.177372,0.015875,0.020712,0.050170,-0.056082,-0.007765,-0.120651,0.028911,-0.017944,0.081255,-0.031557,0.010504,-0.109271,0.107494,0.013498,0.008849,-0.110842,-0.043841,0.010719,0.047616,0.049493,-0.022662,0.045755,0.043789,0.012453,-0.556405,-0.050694,0.029616,-0.038176,-0.041705,-0.114846,0.065325,0.024431,-0.076632,-0.078373,-0.044047,-0.007725,0.060688,-0.000157,-0.031145,0.035920,-0.070094,0.031960,0.019192,0.000717,-0.195674,0.104982,-0.009677,-0.036010,0.160011,0.010715,-0.029856,-0.001760,-0.045371,-0.040684,0.086307,0.039961,0.036873,-0.166926,0.102303,-0.022391,0.084109,-0.018721,-0.090516,0.002450,0.129991,0.128867,0.080545,0.005687,-0.023736,0.082401,0.189570,0.065703,-0.022385,0.019232,-0.067429,0.178168,0.134159,0.029920,0.027552,-0.042833,-0.019876,0.023668,-0.120845,-0.151027,0.048663,-0.035535,0.060892,-0.214820,0.212652,0.022110,0.011745,-0.146249,0.081466,-0.083761,0.253039,0.246676,-0.096266,-0.037752,-0.029221,0.141022,0.190144,0.104594,-0.119572,-0.123591,-0.065901,0.171337,0.179593,0.034374,0.008398,-0.049131,-0.059962,-0.131996,-0.038896,-0.066121,0.068305,-0.039311,0.055066,-0.207126,0.168564,0.167761,0.088953,-0.147485,0.009395,-0.142263,0.123572,0.241741,-0.036968,-0.056240,-0.007082,0.061540,0.083515,0.221376,-0.033036,-0.006221,-0.037787,-0.071200,0.105364,0.049665,0.005695,-0.079448,-0.037695,-0.088278,0.093503,-0.102624,0.040520,-0.032783,0.009132,-0.134374,-0.014716,0.058814,0.030560,-0.017732,-0.009514,-0.176997,-0.042381,0.135459,0.001519,0.038295,0.029410,0.013248,-0.033473,-0.011179,0.064076,0.043696,-0.059729,0.223217,-0.148764,-0.070750,0.047124,0.038965,-0.030935,0.039251,0.053178,-0.121356,0.017384,-0.001161,-0.024731,-0.004897,0.023125,0.021770,-0.405828,-0.044470,0.038094,-0.060481,-0.025124,-0.109862,0.127339,-0.034452,0.060363,-0.115900,0.032179,-0.091425,0.003227,0.057201,0.065757,-0.107702,0.090945,-0.023367,0.041446,-0.031613,0.054106,-0.193465,0.124505,0.074492,0.052498,0.005959,-0.082532,-0.098969,0.010735,0.130967,0.030439,-0.005364,0.013064,-0.082802,-0.019825,-0.080703,0.067094,-0.106418,0.120724,0.073991,0.031972,0.018782,-0.057586,-0.034180,0.027308,0.008658,0.215338,0.046679,-0.061141,-0.113207,-0.051609,0.019724,0.258446,0.168106,-0.137570,-0.124822,-0.006968,-0.074987,0.143515,0.230837,-0.088326,-0.058102,0.048834,-0.136996,-0.049511,-0.024802,0.140291,-0.034833,0.101113,-0.096884,-0.116903,0.043719,0.183489,0.054184,0.076909,0.007668,0.003400,0.064674,0.180490,-0.009016,0.003385,0.030503,0.192159,0.205353,-0.084303,-0.009092,0.088088,-0.050416,0.150707,0.103719,0.022987,0.003007,-0.025426,-0.151038,-0.099672,-0.163967,0.119547,-0.065748,-0.081128,-0.035932,-0.055702,-0.052531,0.022000,-0.010674,-0.063893,0.036651,-0.027989,0.047680,-0.007952,-0.060637,-0.150965,0.014439,0.115872,0.116414,-0.097679,-0.006405,-0.032899,0.045457,0.114844,0.124199,-0.031914,0.009847,-0.035140,-0.077529,-0.108160,-0.185540,-0.001779,0.024430,-0.030106,-0.048520,-0.227885,-0.081954,-0.101506,0.002184,0.026011,0.098262,-0.174806,-0.003800,0.011477,-0.023311,-0.177480,-0.054746,-0.040301,0.051623,-0.037354,0.132286,-0.022225,-0.110106,0.196237,0.032621,0.141813,-0.029305,0.010936,-0.043905,-0.028835,-0.020281,0.050327,0.219250,0.076528,-0.152577,0.257874,-0.127644,0.179716,0.226793,0.017918,-0.298561,0.256628,-0.088725,0.422529,0.177059,-0.076293,-0.238128,0.171294,-0.094985,0.302701,0.070520,-0.020201,-0.158372,0.067084,0.012023,0.320493,0.074746,0.025087,0.038139,0.039027,0.065852,0.273901,0.049428,0.095610,0.005675,-0.115087,0.002247,0.401781,0.111569,0.098705,-0.043722,-0.392441,0.116048,0.324962,-0.111585,0.187564,0.130709,-0.391574,0.069157,0.080847,0.088029,0.076740,0.351151,-0.220821,-0.070215,-0.239749,0.022736,0.053000,0.294384,-0.093439,-0.098311,-0.394251,0.065954,-0.022903,0.057977,-0.147116,-0.026237,0.215270,-0.023106,-0.147344,0.157220,-0.284477,-0.172876,-0.112686,-0.076232,-0.210478,0.359979,-0.020644,-0.271230,-0.166844,-0.033719,-0.125499,0.271007,0.206457,-0.052706,-0.237313,-0.138074,-0.053262,0.079604,0.103920,0.021017,-0.086244,-0.064296,-0.106320,0.177396,0.079179,0.125796,-0.131679,-0.063315,-0.011691,0.152885,0.216166,0.142963,-0.161963,-0.074936,0.106191,0.115837,0.271074,-0.049827,-0.019477,0.025552,0.173275,0.160925,0.469536,-0.076510,-0.079212,-0.016079,0.079545,0.126878,0.209372,-0.000567,-0.051418,-0.102466,0.017259,0.164756,0.253018,0.222899,-0.247046,0.025405,0.039608,0.146145,0.460537,0.112778,-0.140290,-0.084550,-0.019695,0.176287,0.440465,0.067893,-0.032056,-0.093099,0.053479,0.160907,0.424562,0.139221,-0.025044,-0.254268,0.098654,0.057338,0.203696,0.144994,-0.172025,-0.027712,0.044247,-0.045801,0.045822,-0.040420,-0.262930,-0.008334,-0.056919,0.063565,-0.057712,0.079014,-0.163839,-0.035451,-0.123473,-0.019693,-0.054288,0.001903,-0.114238,-0.064919,0.092453,-0.035536,0.141840,-0.040021,-0.071018,0.006004,0.173915,0.020279,0.145762,-0.014343,-0.053377,0.083755,-0.089080,0.068126,-0.167659,0.052880,0.229460,0.066567,-0.126304,0.028822,-0.000999,-0.047918,-0.044764,-0.020022,-0.040226,-0.159820,0.040810,-0.134735,-0.108974,-0.057278,0.032031,-0.224789,0.046476,-0.037007,-0.206024,-0.200780,0.176645,-0.268167,-0.122167,0.049913,-0.078866,-0.079764,-0.097380,-0.064646,-0.289785,0.103098,0.096300,0.089136,-0.044052,-0.171187,-0.157338,0.079503,0.034534,-0.004987,-0.003594,-0.383762,-0.324926,-0.129172,-0.008155,-0.039769,-0.019328,-0.424723,-0.288459,0.131349,-0.133111,-0.214424,0.158860,-0.296209,-0.329824,0.051646,-0.034435,-0.213380,0.225367,0.206321,-0.529731,0.067715,0.124515,0.109832,-0.005188,-0.355659,-0.239215,0.088549,-0.048965,0.199646,-0.030985,-0.468979,-0.316068,-0.030567,0.054085,0.207887,-0.144811,-0.320793,-0.326064,-0.127713,-0.101969,0.113710,-0.064962,-0.086302,-0.302376,-0.138307,-0.210857,-0.079892,0.296876,0.266345,-0.435049,0.018846,-0.135205,-0.029777,-0.085046,-0.129813,-0.086720,0.086220,-0.127580,0.002600,-0.121117,-0.042097,-0.178334,0.092206,0.032344,0.085280,-0.075209,0.078982,-0.207109,0.111410,0.069165,0.113788,-0.043653,0.056414,-0.189674,-0.043804,-0.045409,0.071982,0.180371,0.250674,-0.104959,-0.064446,-0.052114,0.049994,0.021575,0.043820,-0.046625,-0.015947};