float Layer4_Weights_CPU[1010] = {0.001533,-0.012417,-0.010436,0.055284,0.011336,-0.004957,-0.005039,0.002360,0.009043,-0.009402,0.018611,0.011686,0.425337,-0.004605,-0.021748,-0.002435,-0.023399,-0.001100,0.006427,0.008338,0.003789,0.001398,-0.006374,-0.009308,-0.018402,0.005634,0.088235,0.007647,0.015614,0.011061,-0.000765,-0.000945,0.015971,-0.002548,-0.002468,0.000403,-0.045520,0.027452,0.004508,-0.002396,-0.004669,0.020376,0.004385,0.000120,-0.000291,-0.009893,-0.000018,-0.003483,-0.011621,-0.001009,-0.012809,-0.002805,0.005467,-0.016733,-0.007939,0.046475,-0.001748,-0.004624,0.004469,0.015279,0.000484,0.009004,0.014258,0.019538,-0.002325,0.006433,-0.004342,0.005570,-0.002870,0.007438,0.001935,-0.396170,-0.000926,0.005545,0.002080,-0.008365,0.012200,-0.001581,0.056668,0.000306,-0.026867,0.006803,0.001237,-0.025347,0.006491,0.002454,0.005888,-0.003273,0.004403,0.001878,-0.006615,0.012371,-0.005168,-0.000012,-0.007091,0.001512,-0.032656,-0.016768,-0.009333,-0.004237,0.007584,0.097466,0.025096,-0.010685,-0.010546,0.010548,-0.000556,-0.001319,0.002522,0.002022,-0.033929,-0.024317,0.027556,0.502046,0.005310,-0.008121,0.014996,-0.072074,0.007169,-0.018451,-0.016823,-0.003699,-0.003187,-0.002700,-0.010460,0.002802,-0.004611,0.047193,-0.003331,-0.008064,0.013648,-0.013426,0.000977,-0.026513,-0.012255,-0.011130,-0.013526,-0.041907,0.027360,-0.000730,0.030511,0.028860,0.019391,0.008513,0.001247,-0.006072,-0.006861,-0.011707,0.027401,-0.002618,-0.000111,0.023346,-0.016761,0.013538,0.017721,-0.008889,-0.026251,-0.013309,-0.007997,-0.045915,0.004928,-0.011168,0.022207,0.011192,0.032167,-0.000040,0.022064,-0.009261,0.004728,0.006077,0.008465,0.012107,0.042294,0.010708,0.006080,0.005969,0.002613,-0.032989,-0.008253,-0.346226,-0.011665,-0.014423,-0.006834,-0.000215,-0.039049,-0.017042,0.016468,0.018051,0.010899,-0.046278,0.032439,-0.002655,0.004160,-0.010362,-0.015795,0.019622,0.007843,-0.002924,0.032522,-0.000453,0.005677,-0.023866,-0.136772,0.009197,0.000547,0.115564,-0.011162,0.002553,-0.015347,0.025811,0.009969,-0.058272,-0.091358,-0.003123,0.315810,-0.017425,0.067325,-0.094155,0.208042,-0.022634,0.009679,0.012870,-0.014882,-0.001360,-0.002946,-0.034670,-0.008680,-0.001892,0.035492,-0.002538,-0.000511,-0.020683,0.029642,-0.014040,0.045682,0.012385,-0.005802,-0.007156,0.027156,-0.031373,-0.001339,-0.000240,0.056516,0.022066,-0.055230,-0.002121,0.014663,0.010403,0.012976,0.007022,0.025131,0.010636,0.018911,-0.002706,0.029496,0.014181,-0.004020,0.104131,0.019218,0.008674,-0.066840,0.025620,-0.029302,-0.100067,-0.007431,0.030446,-0.006908,-0.024034,-0.017131,-0.000506,0.006107,-0.002162,-0.008090,0.103593,-0.015861,0.003032,-0.009029,-0.005277,-0.032338,-0.001584,0.022746,-0.008069,0.011792,-0.003337,0.005399,-0.047312,0.005670,-0.005116,0.017598,0.014597,0.019915,-0.035639,0.000699,-0.005328,0.001489,-0.006495,-0.018578,-0.007406,0.049042,0.038637,0.013645,-0.016123,0.007727,0.025454,-0.152191,-0.005811,0.009264,0.028621,-0.008076,0.029793,0.006743,0.029419,0.204647,0.009175,-0.009627,0.597320,0.003775,0.090920,0.044631,-0.036879,-0.012007,0.004138,0.046345,0.002280,0.008164,-0.002398,-0.005116,0.009858,0.003815,-0.006861,0.031152,-0.005072,0.014052,-0.093490,-0.006580,0.003057,0.009902,0.005919,0.008990,-0.015649,-0.038024,-0.011433,0.008169,-0.130508,-0.020612,-0.001055,0.010114,-0.002019,0.008772,0.011137,-0.000849,-0.024927,-0.035711,0.007478,0.010558,-0.012288,-0.026144,0.001969,-0.044013,-0.050281,0.017211,-0.105404,-0.034930,0.011524,0.026261,0.047977,0.014322,0.011097,0.011144,-0.006690,-0.011244,-0.027428,0.021205,-0.001530,0.021131,0.006027,0.000718,-0.012415,0.003756,0.051506,-0.001840,0.011993,0.002469,-0.028851,-0.017720,-0.009404,-0.057285,0.010140,-0.007511,-0.020235,-0.002656,0.016478,-0.006278,0.010529,-0.031041,-0.014328,0.010357,-0.011049,-0.002747,0.038299,0.039688,-0.007649,0.000260,-0.052809,-0.085722,-0.010016,0.025861,-0.041122,-0.002587,0.020246,0.197525,-0.017771,0.006586,0.026268,0.012735,-0.008074,0.537163,0.003103,0.069576,-0.013373,-0.056095,0.014693,-0.005647,-0.018845,-0.011556,-0.002027,0.005172,-0.013111,0.012115,0.002122,0.058804,0.083534,0.007635,0.005901,-0.010070,0.007388,0.018511,-0.005344,0.058231,-0.027285,0.006238,0.024521,0.003410,-0.005850,-0.010635,-0.039314,0.000466,-0.004303,0.008949,-0.012286,-0.003536,-0.037810,0.003960,-0.009845,-0.041667,-0.021081,0.070459,-0.071413,0.009716,0.005210,0.034780,-0.007227,-0.060092,0.012902,0.007164,0.014130,-0.029253,-0.080241,-0.009248,0.007720,-0.013658,0.008076,0.002800,0.042637,-0.000441,0.011890,0.016427,-0.001679,0.002965,0.003771,-0.067328,0.029430,0.146714,0.062251,-0.017069,-0.038857,0.009859,0.022609,-0.016865,-0.014608,-0.031358,-0.009704,0.023612,-0.019419,-0.025230,0.004233,0.003437,0.010881,-0.024235,0.004941,-0.030387,-0.036027,-0.006093,-0.001298,-0.005550,0.052000,0.262643,-0.000199,0.014859,0.003844,-0.009280,-0.007071,-0.008318,0.030915,0.102009,0.010195,0.007743,0.384205,0.015544,-0.080862,0.004185,-0.002474,0.008147,0.015048,-0.000115,-0.006363,-0.002691,-0.008002,-0.019513,-0.005416,-0.003575,0.117109,0.018643,0.037114,-0.009019,0.064508,0.007118,-0.003561,-0.003334,0.007764,0.004226,0.039873,0.051289,0.032096,0.003012,0.070245,-0.002551,-0.006930,-0.001515,0.003005,0.002614,-0.006623,-0.000771,-0.028666,0.008916,0.004525,0.030649,-0.031678,0.013555,0.016065,0.012484,0.035226,-0.003920,0.013382,0.000543,0.022254,-0.012793,-0.032461,-0.018640,0.015643,-0.008079,0.004349,-0.010348,-0.012344,0.002997,-0.003805,0.049540,-0.006865,-0.000088,-0.001464,-0.001437,-0.000628,0.003239,-0.003969,0.001590,-0.054513,-0.000470,0.000596,0.034227,0.013214,0.005232,0.013688,0.000870,0.007394,-0.010374,-0.016583,0.007008,-0.000563,0.005004,0.003646,0.005796,0.015343,0.029621,0.000117,0.008203,0.091735,-0.141952,-0.074334,-0.005725,0.034351,0.000330,-0.003148,-0.033649,-0.001247,-0.000601,-0.053474,0.010688,-0.008206,0.358671,-0.001372,-0.020711,-0.011886,-0.023261,0.004294,-0.007942,-0.014387,0.010984,0.011035,0.002028,-0.022622,-0.022642,0.003745,-0.291102,0.014034,0.021751,-0.005867,-0.001489,-0.002088,0.038610,-0.002504,0.013556,0.016606,-0.094743,0.026923,-0.000202,-0.000664,-0.023601,0.010927,-0.005517,0.004178,-0.009985,-0.003313,-0.003282,-0.006665,-0.015026,0.004957,-0.023601,-0.001063,0.004357,-0.018760,0.007698,-0.038207,-0.017088,0.021701,-0.008806,0.001101,-0.000750,0.011064,0.030197,0.014172,-0.001485,0.002941,-0.009652,0.004119,-0.003441,-0.026420,0.013059,0.147548,-0.004843,-0.004328,-0.000973,-0.016235,-0.000451,-0.001941,0.072523,0.000563,-0.020673,0.005214,0.001552,0.034379,-0.005314,-0.003188,0.022464,-0.001121,0.009657,-0.011236,-0.007061,-0.001928,0.016050,-0.032334,-0.018699,-0.011224,0.062990,0.058556,0.012200,0.001060,0.045837,-0.171472,0.020603,-0.004921,-0.076555,-0.000766,-0.001998,-0.059384,-0.002732,-0.009200,-0.088201,0.059525,0.016827,0.301332,-0.015839,-0.002448,0.022423,-0.058169,0.018994,-0.021441,-0.037202,0.006363,0.002414,0.006197,-0.005640,0.009763,-0.005879,-0.000563,0.033684,0.022670,-0.012084,0.057706,0.002619,-0.032320,-0.002251,0.010163,0.010819,-0.008760,-0.012528,-0.008924,0.012220,-0.043040,0.036304,0.020319,-0.001676,-0.001707,0.023803,-0.002709,-0.026469,0.016472,0.028766,-0.014506,-0.025282,-0.057277,-0.003538,-0.013977,-0.002016,0.020999,-0.014305,0.219841,-0.003175,0.018677,-0.002431,-0.018950,0.016708,0.005054,-0.012229,0.005184,-0.001137,0.016886,-0.030088,-0.022049,-0.007716,0.005385,-0.002806,0.011141,0.013642,-0.064082,0.005922,0.123729,-0.000940,0.002224,0.002272,-0.006251,-0.037614,0.046543,0.013434,-0.033677,-0.005076,-0.112665,0.015571,-0.026585,0.013491,0.003261,-0.009558,0.035469,-0.014425,0.044845,0.023822,-0.001926,-0.005208,0.017596,-0.077752,-0.035324,-0.002906,-0.012875,-0.026577,0.002074,-0.025961,-0.004071,-0.025532,-0.097738,0.037511,-0.013579,0.951003,0.007595,-0.171826,0.004992,-0.031422,-0.008469,0.007254,-0.013265,0.019868,-0.002182,0.002581,0.125958,-0.001791,-0.000582,0.079890,0.013347,-0.047301,-0.022055,-0.048431,0.004689,-0.071949,-0.010175,-0.006240,-0.009719,0.124270,-0.096729,-0.005193,-0.036684,0.008479,0.008765,0.008838,0.012086,0.003676,-0.006218,0.015100,-0.001128,-0.005188,-0.034350,0.080315,0.027077,0.079113,0.028393,-0.016554,-0.042401,-0.005046,-0.020309,0.013073,-0.010383,-0.005350,0.013044,0.021932,0.012385,-0.011313,-0.008410,0.019456,0.001918,-0.006422,0.000478,0.004003,0.092324,0.005539,0.000137,0.003425,0.001995,0.044101,0.016071,0.080374,0.003199,0.118002,-0.024936,-0.002949,0.043250,0.057407,-0.009004,0.013544,0.000460,0.003337,0.001354,0.018392,-0.011213,0.010166,0.016814,0.047215,-0.007470,-0.041618,-0.100321,-0.010822,0.002822,-0.055073,-0.216699,-0.087879,0.013808,-0.070029,0.003037,0.000803,-0.122554,-0.000338,-0.043346,-0.064891,0.011256,-0.014323,0.654667,0.008389,0.067707,0.024488,0.016094,-0.015742,0.010444,0.024963,-0.009188,-0.000436,0.001865,-0.036648,0.013779,0.000634,0.032320,-0.166032,-0.030991,0.022967,0.030949,0.005611,0.020898,0.013378,-0.063967,0.014741,-0.037565,0.054060,-0.006752,-0.006089,0.056303,-0.036846,0.020790,-0.014501,-0.005991,-0.007802,-0.006587,0.056629,0.033751,0.031216,-0.046793,0.013268,-0.098776,0.059065,0.013427,-0.006733,-0.024546,0.010398,-0.075258,-0.000713,-0.017298,0.022296,-0.028324,-0.028550,-0.001374,0.004038,0.016878,0.008616,0.015934,-0.028373,0.008950,0.092401,-0.016272,-0.007846,0.004585,-0.003175,0.066071,-0.042748,-0.019331,-0.050869,0.005807,0.066416,0.002153,0.048189,-0.085727,0.011890,-0.000168,-0.004129,0.054054,0.032026,0.042439,0.015906,-0.003906,0.015245,-0.039621,0.015713,-0.078562,-0.032025,0.008056,0.003577,-0.012002};